/*This file is automatically generated from a Keras model*/

#ifdef HAVE_CONFIG_H
#include "config.h"
#endif

#include "rnn.h"
#include "rnn_data.h"

static const rnn_weight input_dense_weights[1008] = {
   -10, 0, -3, 1, -8, -6, 3, -13,
   1, 0, -3, -7, -5, -3, 6, -1,
   -6, 0, -6, -4, -1, -2, 1, 1,
   -7, 2, 21, 10, -5, -20, 24, 23,
   37, 8, -2, 33, -6, 22, 13, -2,
   50, 8, 13, 1, -15, 30, -10, 30,
   0, 3, 5, 27, 1, 4, -3, 41,
   56, 35, -2, 49, -13, 11, 13, -2,
   -47, 5, -16, -60, -15, 77, -17, 26,
   -3, 14, -21, 19, -5, -19, -13, 0,
   10, 14, 9, 31, -13, -41, -10, 4,
   22, 18, -48, -6, -10, 62, -3, -18,
   -14, 12, 26, -28, 3, 14, 25, -13,
   -19, 6, 5, 36, -3, -65, -12, 0,
   31, -7, -9, 101, -4, 26, 16, 17,
   -12, -12, 14, -36, -3, 5, -15, 21,
   2, 30, -3, 38, -4, 1, -6, 7,
   -7, 14, 38, -22, -30, -3, -7, 3,
   -39, -70, -126, 25, 34, 94, -67, -22,
   -33, 83, -47, -118, 4, 70, 33, 25,
   62, -128, -76, -118, -113, 49, -12, -100,
   -18, -114, -33, 43, 32, 61, 40, -9,
   -106, 2, 36, -100, -40, -5, 20, -75,
   61, -51, -9, 126, -27, -52, 5, -24,
   -21, -126, -114, -12, 15, 106, -2, 73,
   -125, 50, 13, -120, 35, 35, 4, -61,
   29, -124, 6, -53, -69, -125, 64, -89,
   36, -107, -103, -7, 27, 121, 69, 77,
   -35, 35, 95, -125, -49, 97, -45, -43,
   -23, 23, -28, -65, -118, 2, 8, -126,
   27, -97, 92, 5, 55, 82, 17, -57,
   -115, 37, 8, -106, -46, 41, -2, 21,
   -44, 8, -73, -58, -39, 34, 89, -95,
   95, -117, 120, -58, 31, 123, 1, -32,
   -109, -110, 60, -120, -43, -74, 5, 91,
   26, 21, 114, 82, -83, -126, 123, 22,
   -16, -67, 25, -83, 46, 48, -34, -121,
   -124, -63, -35, -9, 31, 82, 123, 6,
   -3, 117, 93, -2, -13, -36, 124, -112,
   -6, -102, -5, -33, -15, 44, -69, -127,
   -23, -40, -34, -85, 68, 83, -1, 40,
   8, 84, 118, -58, -55, -102, 123, -55,
   -14, -123, 44, -63, -14, 21, 35, 16,
   24, -126, -13, -114, 35, 20, -36, 61,
   -9, 97, 34, 19, -32, -109, 76, -104,
   99, -119, 45, -125, -51, -28, -8, -69,
   -8, 125, -45, -93, 113, 103, -41, -82,
   52, 7, 126, 0, -40, 104, 55, -58,
   17, -124, -93, -58, 8, -45, 1, 56,
   -123, 108, -47, -23, 115, 127, 17, -68,
   -13, 116, -82, -44, 45, 67, -120, -101,
   -15, -125, 120, -113, 17, -48, -73, 126,
   -64, -86, -118, -19, 112, -1, -66, -27,
   -62, 121, -86, -58, 50, 89, -38, -75,
   95, -111, 12, -113, 2, -68, 2, -94,
   -121, 91, -5, 0, 79, 43, -7, -18,
   79, 35, -38, 47, 1, -45, 83, -50,
   102, 32, 55, -96, 15, -122, -69, 45,
   -27, 91, -62, -30, 46, -95, 22, -72,
   -97, -1, 14, -122, 28, 127, 61, -126,
   121, 9, 68, -120, 49, -60, 90, 3,
   43, 68, 54, 34, -10, 28, 21, -24,
   -54, 22, -113, -12, 82, -2, -17, -9,
   127, 8, 116, -92, 0, -70, -33, 123,
   66, 116, -74, -4, 74, -72, -22, -47,
   1, -83, -60, -124, 1, 122, -57, -43,
   49, 40, -126, -128, -8, -29, 28, -24,
   -123, -121, -70, -93, -37, -126, 11, -125,
   -37, 11, -31, -51, -124, 116, -128, 8,
   -25, 109, 75, -12, 7, 8, 10, 117,
   124, -128, -128, 29, -26, 101, 21, -128,
   87, 8, -39, 23, -128, 127, -127, 74,
   -55, 74, 112, 127, 4, 55, 44, -92,
   123, 34, -93, 47, -21, -92, 17, 49,
   -121, 92, 7, -126, -125, 124, -74, 3,
   -59, 18, -91, 3, -9, 9, 56, 116,
   7, -29, 33, 87, -21, -128, -13, 57,
   74, 9, -29, -61, -97, -21, -95, -12,
   -114, 16, 82, 125, -7, 10, -24, 9,
   77, -128, -102, -25, 3, -126, 10, 13,
   -18, 51, 26, 127, -79, 35, 51, 12,
   -50, -24, 1, -7, 22, 81, 65, 120,
   -30, -38, 85, 122, -4, -106, -11, 27,
   53, 41, 8, -104, -66, -38, -124, 10,
   12, 76, 117, -109, 9, 11, 2, -18,
   3, 113, -16, -79, -39, -123, -20, -128,
   2, 13, -33, -58, 10, 84, -104, 13,
   64, 109, 1, 54, -12, 28, 24, 63,
   -126, 118, -82, 46, -12, -15, 14, -43,
   60, 22, -32, -19, -46, 91, -107, 24,
   -94, 26, -47, 125, 6, 58, -15, -75,
   -26, -38, -35, 103, -16, -17, -13, 63,
   -2, 45, -45, -73, -23, 70, -87, 51,
   -17, 53, 76, 14, -18, -31, -14, 103,
   8, 21, -28, -33, -20, -47, 6, 39,
   40, -30, 7, -76, 55, 31, -20, -21,
   -59, 1, 25, -11, 17, 5, -13, -39,
   0, -76, 50, -33, -29, -50, -16, -11,
   -12, -1, -46, 40, -10, 65, -19, 21,
   -41, -32, -83, -19, -4, 49, -60, 118,
   -24, -46, 9, 102, -20, 8, -19, 25,
   31, -3, -37, 0, 25, 7, 29, 2,
   -39, 127, -64, -20, 64, 115, -30, 36,
   100, 35, 122, 127, 127, -127, 127, -127,
   19, 127, -89, -79, -32, 39, -127, 125,
   -80, 126, -127, 26, 8, 98, -8, -57,
   -90, -50, 126, 61, 127, -126, 40, -106,
   -68, 104, -125, -119, 11, 10, -127, 66,
   -56, -12, -126, -104, 27, 75, 38, -124,
   -126, -125, 84, -123, -45, -114, -128, 127,
   103, -101, -124, 127, -11, -23, -123, 92,
   -123, 24, 126, 41, -2, -39, -27, -94,
   40, -112, -48, 127, 58, 14, 38, -75,
   -64, 73, 117, 100, -119, -11, 6, 32,
   -126, -14, 35, 121, -10, 54, -60, 89,
   -3, 69, -25, -20, 43, -86, -34, 24,
   27, 7, -81, -99, -23, -16, -26, 13,
   35, -97, 80, -29, -13, -121, -12, -65,
   -94, 70, -89, -126, -95, 88, 33, 96,
   29, -90, 69, 114, -78, 65, 90, -47,
   -47, 89, 1, -12, 3, 8, 30, 5,
   2, -30, -1, 6, -7, 10, -4, 46,
   -27, -40, 22, -6, -17, 45, 24, -9,
   23, -14, -63, -26, -12, -57, 27, 25,
   55, -76, -47, 21, 34, 33, 26, 17,
   14, 6, 9, 26, 25, -25, -25, -18
};

static const rnn_weight input_dense_bias[24] = {
   38, -6, 127, 127, 127, -43, -127, 78,
   127, 5, 127, 123, 127, 127, -128, -76,
   -126, 28, 127, 125, -30, 127, -89, -20
};

static const DenseLayer input_dense = {
   input_dense_bias,
   input_dense_weights,
   42, 24, ACTIVATION_TANH
};

static const rnn_weight vad_gru_weights[1728] = {
   -124, 23, -123, -33, -95, -4, 8, -84,
   4, 101, -119, 116, -4, 123, 103, -51,
   29, -124, -114, -49, 31, 9, 75, -128,
   0, -49, 37, -50, 46, -21, -63, -104,
   54, 82, 33, 21, 70, 127, -9, -79,
   -39, -23, -127, 107, 122, -96, -46, -18,
   -39, 13, -28, -48, 14, 56, -52, 49,
   -1, -121, 25, -18, -36, -52, -57, -30,
   54, -124, -26, -47, 10, 39, 12, 2,
   9, -127, -128, 102, 21, 11, -64, -71,
   89, -113, -111, 54, 31, 94, 121, -40,
   30, 40, -109, 73, -9, 108, -92, 2,
   -127, 116, 127, 127, -122, 95, 127, -37,
   -127, 28, 89, 10, 24, -104, -62, -67,
   -14, 38, 14, -71, 22, -41, 20, -50,
   39, 63, 86, 127, -18, 79, 4, -51,
   2, 33, 117, -113, -78, 56, -91, 37,
   34, -45, -44, -22, 21, -16, 56, 30,
   -84, -79, 38, -74, 127, 9, -25, 2,
   82, 61, 25, -26, 26, 11, 117, -65,
   12, -58, 42, -62, -93, 11, 11, 124,
   -123, 80, -125, 11, -90, 42, 94, 4,
   -109, -1, 85, -52, 45, -26, -27, 77,
   -5, 30, 90, 0, 95, -7, 53, 29,
   -82, 22, -9, 74, 2, -12, -73, 114,
   97, -64, 122, -77, 43, 91, 86, 126,
   106, 72, 90, -43, 46, 96, -51, 21,
   22, 68, 22, 41, 79, 75, -46, -105,
   23, -116, 127, -123, 102, 57, 85, 10,
   -29, 34, 125, 126, 124, 81, -15, 54,
   96, -128, 39, -124, 103, 74, 126, 127,
   -50, -71, -122, -64, 93, -75, 71, 105,
   122, 123, 126, 122, -127, 33, -63, -74,
   124, -71, 33, 41, -56, 19, 6, 65,
   41, 90, -116, -3, -46, 75, -13, 98,
   -74, -42, 74, -95, -96, 81, 24, 32,
   -19, -123, 74, 55, 109, 115, 0, 32,
   33, 12, -20, 9, 127, 127, -61, 79,
   -48, -54, -49, 101, -9, 27, -106, 74,
   119, 77, 87, -126, -24, 127, 124, 31,
   34, 127, 40, 3, -90, 127, 23, 57,
   -53, 127, -69, -88, -33, 127, 19, -46,
   -9, -125, 13, -126, -113, 127, -41, 46,
   106, -62, 3, -10, 111, 49, -34, -24,
   -20, -112, 11, 101, -50, -34, 50, 65,
   -64, -106, 70, -48, 60, 9, -122, -45,
   15, -112, -26, -4, 1, 39, 23, 58,
   -45, -80, 127, 82, 58, 30, -94, -119,
   51, -89, 95, -107, 30, 127, 125, 58,
   -52, -42, -38, -20, -122, 115, 39, -26,
   5, 73, 13, -39, 43, -23, -20, -125,
   23, 35, 53, -61, -66, 72, -20, 33,
   8, 35, 4, 7, 18, 19, 16, -45,
   -50, -71, 31, -29, -41, -27, 10, 14,
   27, 9, -23, 98, 6, -94, 92, 127,
   -114, 59, -26, -100, -62, -127, -17, -85,
   -60, 126, -42, -6, 33, -120, -26, -126,
   -127, -35, -114, -31, 25, -126, -100, -126,
   -64, -46, -31, 30, 25, -74, -111, -97,
   -81, -104, -114, -19, -9, -116, -69, 22,
   30, 59, 8, -51, 16, -97, 18, -4,
   -89, 80, -50, 3, 36, -67, 56, 69,
   -26, 107, -10, 58, -28, -4, -57, -72,
   -111, 0, -75, -119, 14, -75, -49, -66,
   -49, 8, -121, 22, -54, 121, 30, 54,
   -26, -126, -123, 56, 5, 48, 21, -127,
   -11, 23, 25, -82, 6, -25, 119, 78,
   4, -104, 27, 61, -48, 37, -13, -52,
   50, -50, 44, -1, -22, -43, -59, -78,
   -67, -32, -26, 9, -3, 40, 16, 19,
   3, -9, 20, -6, -37, 28, 39, 17,
   -19, -10, 1, 6, -59, 74, 47, 3,
   -119, 0, -128, -107, -25, -22, -69, -23,
   -111, -42, -93, -120, 90, -85, -54, -118,
   76, -79, 124, 101, -77, -75, -17, -71,
   -114, 68, 55, 79, -1, -123, -20, 127,
   -65, -123, -128, -87, 123, 9, -115, -14,
   7, -4, 127, -79, -115, 125, -28, 89,
   -83, 49, 89, 119, -69, -5, 12, -49,
   60, 57, -24, -99, -110, 76, -83, 125,
   73, 81, 11, 8, -45, 1, 83, 13,
   -70, -2, 97, 112, -97, 53, -9, -94,
   124, 44, -49, -24, 52, 76, -110, -70,
   -114, -12, 72, -4, -114, 43, -43, 81,
   102, -84, -27, 62, -40, 52, 58, 124,
   -35, -51, -123, -43, 56, -75, -34, -35,
   -106, 93, -43, 14, -16, 46, 62, -97,
   21, 30, -53, 21, -11, -33, -20, -95,
   4, -126, 12, 45, 20, 108, 85, 11,
   20, -40, 99, 4, -25, -18, -23, -12,
   -126, -55, -20, -44, -51, 91, -127, 127,
   -44, 7, 127, 78, 38, 125, -6, -94,
   -103, 73, 126, -126, 18, 59, -46, 106,
   76, 116, -31, 75, -4, 92, 102, 32,
   -31, 73, 42, -21, -28, 57, 127, -8,
   -107, 115, 124, -94, -4, -128, 29, -57,
   70, -82, 50, -13, -44, 38, 67, -93,
   6, -39, -46, 56, 68, 27, 61, 26,
   18, -72, 127, 22, 18, -31, 127, 61,
   -65, -38, 1, -67, -1, 8, -73, 46,
   -116, -94, 58, -49, 71, -40, -63, -82,
   -20, -60, 93, 76, 69, -106, 34, -31,
   4, -25, 107, -18, 45, 4, -61, 126,
   54, -126, -125, 41, 19, 44, 32, -98,
   125, -24, 125, -96, -125, 15, 87, -4,
   -90, 18, -40, 28, -69, 67, 22, 41,
   39, 7, -48, -44, 12, 69, -13, 2,
   44, -38, 111, -7, -126, -22, -9, 74,
   -128, -36, -7, -123, -15, -79, -91, -37,
   -127, -122, 104, 30, 7, 98, -37, 111,
   -116, -47, 127, -45, 118, -111, -123, -120,
   -77, -64, -125, 124, 77, 111, 77, 18,
   -113, 117, -9, 67, -77, 126, 49, -20,
   -124, 39, 41, -124, -34, 114, -87, -126,
   98, -20, 59, -17, -24, 125, 107, 54,
   35, 33, -44, 12, -29, 125, -71, -28,
   -63, -114, 28, -17, 121, -36, 127, 89,
   -122, -49, -18, -48, 17, 24, 19, -64,
   -128, 13, 86, 45, 13, -49, 55, 84,
   48, 80, -39, 99, -127, 70, -33, 30,
   50, 126, -65, -117, -13, -20, -24, 127,
   115, -72, -104, 63, 126, -42, 57, 17,
   46, 21, 119, 110, -100, -60, -112, 62,
   -33, 28, 26, -22, -60, -33, -54, 78,
   25, 32, -114, 86, 44, 26, 43, 76,
   121, 19, 97, -2, -3, -73, -68, 6,
   -116, 6, -43, -97, 46, -128, -120, -31,
   -119, -29, 16, 16, -126, -128, -126, -46,
   -9, -3, 92, -31, -76, -126, -3, -107,
   -12, -23, -69, 5, 51, 27, -42, 23,
   -70, -128, -29, 22, 29, -126, -55, 50,
   -71, -3, 127, 44, -27, -70, -63, -66,
   -70, 104, 86, 115, 29, -92, 41, -90,
   44, -11, -28, 20, -11, -63, -16, 43,
   31, 17, -73, -31, -1, -17, -11, -39,
   56, 18, 124, 72, -14, 28, 69, -121,
   -125, 34, 127, 63, 86, -80, -126, -125,
   -124, -47, 124, 77, 124, -19, 23, -7,
   -50, 96, -128, -93, 102, -53, -36, -87,
   119, -125, 92, -126, 118, 102, 72, -2,
   125, 10, 97, 124, -125, 125, 71, -20,
   -47, -116, -121, -4, -9, -32, 79, -124,
   -36, 33, -128, -74, 125, 23, 127, -29,
   -115, -32, 124, -89, 32, -107, 43, -17,
   24, 24, 18, 29, -13, -15, -36, 62,
   -91, 4, -41, 95, 28, -23, 6, 46,
   84, 66, 77, 68, -70, -1, -23, -6,
   65, 70, -21, 9, 77, -12, 2, -118,
   4, 9, -108, 84, 52, 2, 52, 13,
   -10, 58, -110, 18, 66, -95, -23, 70,
   31, -3, 56, 56, -3, -7, 1, -27,
   -48, -61, 41, -4, 10, -62, 32, -7,
   -24, 9, -48, -60, -4, 79, -20, -38,
   -76, 68, -49, -97, 0, -15, 5, -100,
   -49, -95, -99, -115, -9, -40, 10, 104,
   13, 56, 127, -27, -109, -94, -118, -102,
   -44, -85, 52, 127, -4, 14, 62, 121,
   -122, -26, -79, -42, -34, 1, 25, -38,
   -79, -58, -31, -31, -90, -30, -123, 32,
   -56, 125, 66, 124, -1, 3, 91, -103,
   -7, 23, 78, -18, 9, 69, -69, 76,
   -38, -33, -2, -98, 18, 106, 84, 55,
   87, -47, 35, -124, 64, 41, -14, 46,
   25, -2, 120, -21, 82, 19, -79, -37,
   -3, -8, -16, 21, 19, -5, -28, -112,
   39, -6, -30, 53, -69, 53, 46, 127,
   123, 78, 20, 28, -7, 73, 72, 17,
   -40, 41, 111, 57, 32, -95, 29, 28,
   -39, -65, 54, -20, -63, 29, -67, 3,
   44, -57, -47, 11, 61, -22, -44, 61,
   48, -100, 20, 125, 96, -24, -16, 3,
   -69, -126, 74, -125, 9, 45, -67, -123,
   -59, -72, 118, 69, 45, 50, -57, 67,
   13, -66, -106, 47, 62, 22, -1, -22,
   -25, -40, -125, 3, 125, 32, 102, -56,
   -25, -75, -30, 122, 60, -13, 36, -73,
   7, -84, 124, 40, -118, 17, -87, -118,
   -8, 3, -27, 111, -40, 40, -51, 127,
   125, -45, -30, -54, 46, 80, -1, -30,
   101, -17, 18, 26, 54, 7, -12, 1,
   -127, 123, -122, -27, -75, 64, 10, 25,
   -15, -44, 127, -127, 5, -84, -81, -7,
   19, -26, 126, 15, 116, -126, 14, -76,
   44, 62, -110, -124, 125, -29, -87, -3,
   -69, 82, 90, 57, -123, 123, 100, -19,
   -51, -32, 69, 37, -57, -128, -124, -72,
   -13, 51, -7, -45, -73, 5, 99, -26,
   -117, -96, -109, 4, -31, -12, 0, 31,
   -42, -27, 12, -81, 118, 39, 83, 14,
   41, -126, 107, -82, 94, -116, -122, -47,
   -109, -84, -128, -35, -56, 66, 8, -65,
   19, 42, -46, -72, -109, 41, 43, -127,
   -113, 58, 127, 42, -75, -1, 65, 117,
   -55, -113, -123, 124, 43, -96, -115, -19,
   68, 15, 94, 3, 75, 0, 34, 9,
   42, 110, -48, 92, -76, 99, -17, 27,
   32, 13, 125, 50, -17, 56, 4, 53,
   34, -8, 99, 80, -126, -21, -65, -11,
   -46, 44, -81, -3, -121, 123, 66, -81,
   -84, 119, 127, 84, 105, 45, -66, -42,
   -23, 32, -25, 12, 111, 127, 88, 125,
   30, 24, -127, -9, -54, 127, -116, -119,
   88, 70, 94, -120, 35, -93, 15, 22,
   -21, 25, -110, -123, -45, 8, -109, 125,
   -122, -86, -126, 8, -14, -120, -45, -45,
   69, -125, -122, 6, 81, 86, 125, 95,
   54, 77, 54, -123, 126, -85, -117, 56,
   11, 0, -61, -91, -12, -2, -113, -3,
   -15, -122, -63, -91, 10, 84, -111, 125,
   93, 21, 62, -78, -116, 13, -57, 28,
   -124, 126, 110, 12, 15, 95, 15, -19,
   -125, -97, 52, -7, 101, 9, 20, -125,
   -26, -56, 72, 77, 12, -126, 22, -29,
   47, 62, 95, 112, 69, 32, 97, -83,
   -8, -5, 67, -63, -123, 79, 59, 0,
   -6, -17, 4, -111, -52, 27, 65, 0
};

static const rnn_weight vad_gru_recurrent_weights[1728] = {
   65, 83, 35, 56, 24, -34, -28, -2,
   125, 19, 42, -9, 124, -53, 24, -87,
   11, 35, -81, -35, -125, -31, 123, -21,
   33, -91, 113, -93, 45, -6, 53, 38,
   -92, 8, -27, 87, 4, 43, 43, 10,
   -128, -128, -46, 127, -38, -45, 25, -87,
   19, 5, 52, -96, -23, -29, 121, -126,
   -24, -20, -2, 69, -50, 6, 71, -81,
   -125, 90, -94, 1, -38, 36, 89, 17,
   -60, 71, -48, 18, -15, 44, -18, 59,
   11, 114, -51, 32, 110, 1, 4, 109,
   -24, 127, 27, 60, 88, 24, 45, -59,
   75, -36, 8, 57, -32, -25, 13, 126,
   -89, -61, -76, 127, 18, -62, -68, 23,
   -113, 5, 126, 43, -88, 26, -78, 18,
   75, 21, 9, -74, 20, 41, 126, -118,
   -15, 9, 116, 126, -127, 34, -6, 126,
   -128, -53, -54, -55, -121, 70, 127, -12,
   -68, 82, -25, 104, -126, 126, -21, -26,
   124, -75, -127, -120, 13, 61, -64, -108,
   -63, -65, -44, -35, -61, -39, 109, -74,
   113, -3, 108, -30, 125, 120, 39, 125,
   -128, -95, -99, 111, 9, 25, 114, -75,
   -92, -54, -12, -32, -38, 10, 31, 10,
   63, 51, 40, -99, 74, 4, 50, -128,
   -36, -35, -11, -28, -126, -7, 66, -58,
   -126, -22, -83, -61, -127, 49, 126, -8,
   7, 62, 36, -11, -32, -44, 63, 116,
   41, 65, -127, 126, 63, -30, -96, 74,
   -92, 127, 38, -18, -128, 68, -5, 101,
   -4, 85, 58, 79, 0, -58, 8, 119,
   -70, -1, -79, -68, 114, -28, -90, -6,
   -112, 2, 127, -8, 10, 55, -59, -126,
   127, 125, 80, 72, 35, -54, 95, -124,
   -124, 79, 23, -46, -61, -127, -100, 99,
   -77, 8, -87, 5, -2, 49, 85, 7,
   -71, 82, 53, -41, 22, -22, -93, -103,
   6, 52, -56, 14, -8, -111, 85, 16,
   54, 32, -118, -24, 61, -53, 96, -70,
   -5, -17, -67, -84, -7, -82, -107, -96,
   21, -83, -58, 50, 12, -126, -1, -28,
   34, -126, 115, 17, 91, 1, -127, 72,
   11, 126, -81, 6, 96, -8, 77, 15,
   -6, 63, -27, 20, -123, -109, 85, -79,
   -17, 126, -92, 2, -61, 20, 14, 17,
   121, 123, 30, 57, 120, 127, 57, 42,
   117, 98, 67, 39, -20, -70, 100, 7,
   125, 122, 40, 16, -79, 125, 83, 41,
   -106, -57, 24, 55, 27, -66, -111, -44,
   -7, -43, -66, 121, 42, -128, -45, 35,
   15, -127, 34, -35, -34, -40, -18, -6,
   63, 111, 31, 116, 127, 19, 24, -71,
   -39, 34, 11, 19, -40, 27, 12, 106,
   -10, 56, -82, -106, -2, -50, -52, 114,
   -126, -34, -43, -68, 10, 76, 57, -118,
   -128, 37, -104, 76, 125, 3, -76, 127,
   -29, 84, -94, -15, 55, 125, 79, 127,
   -57, -125, 104, -68, 126, 126, -77, 51,
   45, 33, -109, 115, -11, 1, 95, -121,
   -5, -9, -126, -114, 39, 68, -126, -107,
   -51, -42, 24, -8, 51, -27, -43, 66,
   -45, 62, -98, -109, 69, 67, 0, -125,
   -128, 49, 31, 126, -122, 2, -55, -67,
   -126, -70, -128, -125, -77, 25, 16, -8,
   -102, 11, -75, 82, 38, -5, 5, 19,
   34, 47, -127, -93, 21, 24, -97, -18,
   31, 39, 34, -20, 22, 123, 7, -77,
   -81, -46, -9, 1, 23, 39, -127, -43,
   -8, -50, 10, -21, 59, -9, -4, -13,
   -27, 44, 127, 52, -47, 70, -43, 52,
   101, -49, 27, 45, 49, 33, -125, 55,
   114, 20, -1, 76, -24, -96, 105, 24,
   126, 75, -21, -105, 13, -42, 40, 126,
   -30, -39, -95, 125, -63, 11, 6, 125,
   125, -14, 5, 42, -61, -4, 49, 88,
   6, -107, -28, 19, -29, 47, 126, 6,
   -46, -89, -18, 91, -20, -6, 118, -21,
   -22, 39, 115, 11, -42, 54, 73, -55,
   -77, 62, -27, -59, -99, -12, -127, -40,
   56, -3, -124, -91, 71, -111, 6, -19,
   82, -24, -35, 102, -42, 7, -126, -126,
   -125, 18, 98, -52, 127, 105, -52, 40,
   -83, 126, -122, 109, 5, 127, 48, 6,
   5, -125, 100, -16, 29, 85, -89, 8,
   4, 41, 62, -127, 62, 122, 85, 122,
   -107, 8, -125, 93, -127, 127, 102, 19,
   19, -66, 41, -42, 114, 127, -48, -117,
   -29, -6, -73, -102, -3, -19, 0, 88,
   42, 87, -117, -20, 2, 122, 28, 63,
   71, 66, 120, 93, 124, -43, 49, 103,
   31, 90, -91, -22, -126, 26, -24, -21,
   51, -126, 87, -103, -69, -10, -66, -23,
   20, 97, 36, 25, -127, 30, -20, -63,
   30, 51, -116, 23, 40, -39, 36, -83,
   -77, -25, -50, 110, 14, 13, -109, 125,
   -65, -55, -87, 124, -126, -32, -72, -108,
   127, 127, -125, -124, 61, 121, 102, -128,
   -127, 16, 100, 127, -124, -68, 72, -93,
   -128, 43, -93, -19, -125, -97, -113, -33,
   83, 127, -44, 127, -75, 127, 16, 44,
   50, -122, 23, 118, 46, 19, 26, -128,
   10, 4, 99, -14, -82, -13, 30, 125,
   57, 65, 60, -71, 35, 98, 28, 7,
   1, 43, 89, 70, 75, 121, -59, 82,
   -126, -53, -16, -116, -65, 52, -52, 0,
   80, 35, 45, -61, 46, 8, 107, 27,
   -26, -118, 90, 57, -10, 7, -15, 0,
   -39, -4, 12, 29, -1, 116, 84, 79,
   119, 125, -59, 28, -6, -25, -43, 2,
   90, 79, 67, 103, -82, 2, -6, 125,
   19, 73, 0, -105, 112, -17, 104, 107,
   124, 106, 19, 56, -44, 55, -112, 6,
   -39, -83, 126, -93, -98, 57, -120, -23,
   -38, 2, -31, -48, 106, 127, 127, 69,
   16, 110, 71, 104, 62, -12, -22, 42,
   -37, -94, 34, -1, -32, -12, -124, -47,
   -13, 60, -75, -66, 58, -127, -2, 64,
   76, -106, 73, -49, -31, 127, 126, 31,
   16, 127, -110, 107, -16, -53, 20, 69,
   -14, -125, 59, -44, 15, 120, 125, 125,
   43, 6, 19, -58, 127, 127, 43, 16,
   82, 97, -127, 127, -93, -41, 88, 0,
   77, -15, 116, 16, -124, -31, -3, 95,
   -40, -126, -54, -126, -83, -8, -59, 6,
   67, -29, 4, 124, -10, 112, -28, -8,
   85, -21, 45, 84, 6, -8, 11, 72,
   32, 84, -62, 77, 2, -36, 75, 31,
   -50, 116, 126, 119, -88, -55, -14, -37,
   126, 40, -108, -6, -6, 57, 64, -28,
   -76, 30, -117, -93, 31, -92, -44, -64,
   94, 58, 65, 114, 41, 47, 71, 42,
   -26, 99, -126, 57, -5, 74, -19, -113,
   -1, 67, -21, 126, 1, -3, 33, 60,
   -82, 37, -48, 89, 114, -38, 127, -114,
   35, 58, -5, 21, -46, 121, -123, -43,
   127, 115, 123, 122, -101, 126, 127, 81,
   52, 89, -127, 102, 42, 117, -9, -2,
   125, 127, 110, 96, 120, 66, 70, 124,
   55, 84, -38, -58, 119, -127, -16, -79,
   123, 18, -127, -50, -38, 120, -85, 1,
   7, -56, 108, -77, -2, 21, 37, 1,
   13, -105, -69, 28, -87, 33, -104, -51,
   126, 41, 3, -121, 28, 71, 58, 86,
   -8, 127, 94, -55, 125, 40, -19, 127,
   -33, -87, -23, 7, -111, -68, 9, 84,
   -119, 55, -82, 78, -37, -20, -9, -23,
   53, -13, 15, -46, 116, 126, -127, 56,
   -126, 125, -7, -1, 45, 26, 125, 121,
   29, 47, -86, 30, 10, 76, -125, -7,
   23, 92, -12, -39, -18, 92, -97, -8,
   -85, -41, 49, -50, 123, -37, -126, -30,
   14, 79, -49, -65, 9, -36, -38, -96,
   85, -24, -13, 37, -25, -5, -64, -127,
   55, -60, -18, -61, -63, 127, 56, 67,
   15, 124, 72, 120, 127, 40, -10, 114,
   24, -23, 46, 78, -53, 125, 86, 124,
   86, 0, 38, 93, 21, 127, 123, 75,
   -72, 13, 48, 33, 83, -51, 15, -32,
   -49, -33, 120, 64, 7, 9, 65, 60,
   21, -21, -61, -53, -113, 84, -97, 101,
   37, -114, -27, 41, 73, 126, -10, 59,
   61, -15, 70, -13, 82, -4, 69, 56,
   94, -91, -50, 92, -74, -48, 53, -7,
   -107, 127, 28, 30, -26, -21, -61, 77,
   82, 64, -91, -125, 122, -104, 127, 123,
   122, 123, 76, -126, 127, -6, -80, 7,
   40, -66, -65, 54, -2, 23, 96, -64,
   74, 2, -53, -12, -123, 39, 60, -20,
   16, -17, -97, 23, -4, -53, -122, 32,
   -16, -54, -95, 43, 71, -1, -67, -33,
   41, 18, 72, 28, -83, 31, -100, -91,
   -27, 10, -128, -106, 2, 76, -13, 42,
   34, 112, -19, 44, 40, -9, -11, 65,
   92, -43, -125, 2, 47, -32, 25, 122,
   -29, 12, 101, -8, -126, -23, 43, 7,
   125, -20, -124, 82, -2, 13, -73, -106,
   115, 31, 116, -23, -44, -71, 84, 3,
   47, 91, 127, 127, -15, 95, 7, 93,
   5, 113, -50, 54, 11, 13, -127, 17,
   72, 43, -23, 5, -70, 20, 15, -27,
   99, 69, -109, -122, -94, 16, 127, 0,
   116, 104, 45, 108, -34, 87, 72, -14,
   118, 46, 42, 109, -26, 95, 93, 127,
   60, 127, -93, -54, -122, 34, -105, 56,
   55, 103, 125, -71, -50, 95, -72, 127,
   107, 21, 73, 126, 61, 127, 127, 24,
   -62, 90, 73, 90, -46, -78, -124, 72,
   123, -42, 50, -107, 17, -32, -62, -89,
   124, 1, 80, -2, 117, 119, -65, -127,
   -95, -121, -52, 103, 66, 75, -3, -62,
   -127, 127, -74, 124, 79, 49, 40, 105,
   -67, -71, -70, 43, 127, 119, -4, 66,
   43, 23, 91, -126, 15, 63, -119, 112,
   103, 15, -99, 31, -127, 69, 116, -46,
   -67, 2, -126, -29, 30, 30, -69, -98,
   -47, -87, -70, -127, 23, -73, 30, -7,
   94, -52, -65, 98, -45, 97, 53, 23,
   -9, -22, -52, -47, 6, -1, -85, -15,
   -61, -14, 68, 110, -10, -121, -25, -35,
   -15, -94, -123, 27, 75, 48, -66, -56,
   -44, 93, 109, 67, -36, 24, 70, -126,
   8, -127, 126, 52, 11, -32, 120, -13,
   -26, -28, -125, 127, 106, -50, 124, 36,
   -126, -12, 0, -23, 76, -71, -126, -12,
   -17, -82, 12, 124, 57, 33, 4, 77,
   -46, 71, -34, 72, 125, -128, 124, -24,
   -128, 75, -120, 69, -45, 55, 33, 127,
   -33, 4, -105, -41, -59, -91, 123, 44,
   -127, 127, -67, 52, 25, -125, -65, 100,
   -25, 123, 6, 11, -123, -92, -33, 126,
   -17, -4, 29, 33, 127, 96, 3, 87,
   -48, -18, -70, 123, 58, -127, -3, -52,
   -1, -36, -41, 127, 51, -52, -27, 46,
   -83, 57, 9, 126, 127, 94, 79, -37,
   -127, -40, 67, 52, 82, -66, 122, -13,
   -73, 127, -8, -80, 46, -48, 4, -54
};

static const rnn_weight vad_gru_bias[72] = {
   124, 125, -57, -126, 53, 123, 127, -75,
   68, 102, -2, 116, 124, 127, 124, 125,
   126, 123, -16, 48, 125, 126, 78, 85,
   11, 126, -30, -30, -64, -3, -105, -29,
   -17, 69, 63, 2, -32, -10, -62, 113,
   -52, 112, -109, 112, 7, -40, 73, 53,
   62, 6, -2, 0, 0, 100, -16, 26,
   -24, 56, 26, -10, -33, 41, 70, 109,
   -29, 127, 34, -66, 49, 53, 27, 62
};

static const GRULayer vad_gru = {
   vad_gru_bias,
   vad_gru_weights,
   vad_gru_recurrent_weights,
   24, 24, ACTIVATION_RELU
};

static const rnn_weight noise_gru_weights[12960] = {
   -10, -8, 5, -72, 7, 55, -38, 3,
   10, 4, 21, 60, 73, 0, -3, 34,
   49, -36, 17, 8, 18, 41, -51, -42,
   34, -8, 126, 15, 112, 74, -60, -60,
   53, -17, 65, 6, 74, -1, 26, 80,
   -46, -99, -47, 40, 29, -21, 85, -75,
   27, -117, 46, -22, -76, 56, 16, -67,
   -49, -63, -35, -10, -20, 10, 68, 7,
   -1, 37, 58, -53, 6, -79, -20, 12,
   6, 91, -63, 67, 58, -13, -23, -74,
   -50, -77, -53, -22, -56, 123, -33, 28,
   74, -85, -9, -57, -32, 38, 21, 122,
   40, 23, -30, -81, -68, -29, -14, -98,
   -1, -62, -32, 19, 102, 26, 28, -23,
   104, 28, -43, -20, -41, 28, 80, -22,
   -88, 6, -26, 14, 34, -46, 57, -33,
   -105, -16, 3, -17, -55, -1, -47, -122,
   11, 16, 62, 78, -1, -64, 71, 57,
   -5, 45, 65, -93, 31, 30, -25, 21,
   23, 32, -1, -75, -10, 75, -90, 21,
   7, -110, -77, -39, 18, -39, 54, -97,
   12, 52, -97, 17, 73, 120, -81, -114,
   67, 82, 29, -71, -47, 69, -64, 17,
   -105, -24, -70, -32, -2, -112, -31, -48,
   1, 22, 92, -21, -89, -65, 16, 49,
   3, 15, 80, -21, -1, 37, -4, -25,
   12, -80, -43, 56, -7, 36, -20, 18,
   -12, 39, 66, 74, -100, 117, 76, -82,
   -93, 63, 56, 36, 5, 41, -57, 31,
   -47, -14, 52, -22, -56, 29, -123, -104,
   41, -113, 124, -106, -36, 41, -86, -40,
   44, 28, -6, 114, -32, -17, -26, -77,
   -69, 42, -33, 61, 28, 82, -18, 71,
   -53, -63, 122, -38, -49, -108, -32, 126,
   126, 45, 43, -56, 61, 9, -20, -53,
   122, 98, -3, 3, 24, -3, 80, -42,
   -20, 57, -34, 108, -26, 48, 116, -14,
   53, 5, -45, 21, -55, 114, -49, -29,
   -44, -5, -70, 98, 63, -115, -66, 53,
   -55, -19, 83, -12, 7, 47, 42, 15,
   -36, 44, 75, -85, 105, -84, -17, -127,
   15, -67, -105, 23, 36, -1, -16, -116,
   21, 58, 69, -57, -104, -81, -49, 91,
   26, -72, 33, -31, -37, -79, 5, 9,
   123, -61, 11, 67, -14, -29, 41, -53,
   37, -59, -20, -24, 95, 125, -66, -26,
   17, 28, -43, -8, -100, 80, -6, 0,
   37, -123, -54, -92, 28, 56, 127, 48,
   11, -58, 99, -90, 63, -4, 6, 10,
   37, -38, -15, 31, 5, -39, 25, -17,
   24, -23, -64, -68, 41, 65, 28, -113,
   -115, -27, -51, 50, 9, -101, 73, -41,
   -104, 88, -71, 3, -87, 119, -73, 20,
   -35, 0, -30, 34, -31, -9, -4, 23,
   -19, 35, -16, 111, 66, -52, -107, 101,
   54, -2, -3, 109, -40, -2, 119, 74,
   -26, -116, -105, -90, 25, -111, -43, -92,
   -3, -104, 102, 11, 19, -83, 14, -62,
   38, 57, 50, -10, 36, -95, 124, 32,
   -34, -123, -7, -109, 124, -119, -67, -116,
   -31, 114, -65, -34, -126, 8, 8, 5,
   53, -28, 53, 84, -9, -14, 92, -70,
   74, 116, -4, 121, -49, 108, 0, 126,
   123, -1, -25, 24, 56, -121, 20, -47,
   -41, -11, -22, -32, -40, -41, -66, 29,
   -128, -30, -28, 31, -39, 30, 57, -96,
   63, -121, 71, 1, -29, -20, 72, 114,
   12, -43, 23, -75, 24, -4, -123, 17,
   18, -68, -23, 51, -30, 39, -125, -48,
   13, -119, -75, -74, 51, 125, -10, 29,
   -103, 6, -28, 22, -45, 19, 17, 19,
   33, -3, -18, -30, -12, -25, -128, 61,
   94, 47, -56, 59, -62, 66, -28, 18,
   -115, 12, -3, -80, 60, -62, 55, -16,
   68, 23, -6, 109, 11, 0, -7, -96,
   -11, 21, 44, -75, -8, -10, -10, 69,
   14, 14, -41, 26, 67, 37, -30, 44,
   11, -16, 3, 66, 1, -18, 21, 96,
   -29, -100, 27, -8, -98, 21, -2, 58,
   -45, -15, 93, 37, -66, -48, -7, -5,
   39, -57, 17, -81, 42, 0, -40, 123,
   3, 118, -14, 56, -113, -68, -127, 74,
   -78, 46, 97, -61, -42, 68, -32, 16,
   -10, -82, -6, 1, 98, -48, 20, 32,
   -102, -35, 45, -5, -91, 26, 37, 18,
   59, -88, -29, 17, 43, 33, 14, 6,
   -37, -37, 5, -7, -37, -13, 72, -6,
   -128, -43, 17, 32, 45, -26, 4, -85,
   -59, 8, 5, -27, 51, 55, 42, -79,
   -13, -51, 49, 70, -26, -21, 9, 27,
   21, -26, -76, 28, 1, 89, -76, 23,
   -4, 10, 31, -13, -22, 3, 41, 24,
   18, 25, -55, 10, -23, 4, -72, -18,
   -91, -50, 1, -55, 12, -26, -43, 11,
   -14, 27, -82, -73, 36, 27, -20, 62,
   53, 100, 75, -12, -37, -77, -127, 32,
   -21, -24, 34, -26, -39, -5, -66, 94,
   -97, 19, 16, 61, 59, 65, 37, -64,
   26, -34, 63, 74, 7, 38, -2, -27,
   82, -73, -10, 37, -43, 1, 23, 24,
   25, -5, 13, 6, -76, 78, 46, 44,
   -107, 14, 7, -22, 28, -125, 47, -48,
   28, -16, 15, 1, -16, 21, 15, 51,
   37, -17, 2, 39, -23, -28, 10, -51,
   -48, -1, 6, 88, 38, 22, -40, 37,
   -22, -23, 67, -4, -3, -6, 9, 108,
   -32, 31, 77, 28, -101, -23, -10, -38,
   -13, 12, -34, 55, 24, -4, 48, 29,
   -72, -83, 41, -31, -49, -68, 5, -3,
   124, -19, 44, -94, -4, -8, -31, 9,
   -21, 58, -60, 24, 13, -9, 97, 53,
   93, -51, 105, 55, 36, -32, 6, -51,
   -99, 19, 39, -63, -64, 29, 22, 5,
   -24, -74, 72, -6, 35, 37, -25, 65,
   74, 29, 30, 65, 91, 30, -42, 15,
   42, -64, -87, -68, 53, -78, -33, 21,
   -60, 33, 7, 6, 10, 68, 55, -47,
   51, -56, 79, -29, -1, -66, -29, 50,
   66, -12, -67, 69, -53, -90, -31, -123,
   49, 7, 10, -6, 55, -61, -14, -6,
   59, -2, -41, 21, 10, -21, -24, -23,
   -34, 30, -49, -41, -27, 36, -56, 46,
   7, 18, -23, 78, -49, 1, -37, 43,
   77, -21, -19, 18, 14, 35, 92, 39,
   -39, 44, -58, -1, 4, -63, 27, 79,
   -14, -7, -41, -34, -24, -25, 13, -14,
   -30, 5, -62, 13, -52, 53, 40, -18,
   -29, 52, -20, 11, 20, 23, -47, 51,
   30, -91, -46, 39, 4, 53, -18, 2,
   -28, -12, 62, -29, -57, -13, -20, 60,
   -15, 3, 49, -26, 0, -30, -18, 97,
   11, 52, 43, 87, 107, -94, -30, 63,
   -4, -62, 48, 2, 22, 7, -11, -79,
   -41, 18, -28, 9, 30, -58, 80, -64,
   45, 2, 28, -49, -25, -34, 25, 87,
   108, -8, -42, -34, 61, -14, -13, 62,
   -98, -5, 23, 15, -2, -1, -6, -52,
   40, -33, 61, -38, 76, -115, -23, 22,
   17, 25, 63, -37, -32, 26, -19, -8,
   54, 6, -39, -28, 25, 40, -29, 33,
   10, -50, 20, 25, 6, -22, 69, -24,
   -115, 2, -13, -28, 28, -8, 109, -18,
   -64, 96, 6, 7, 31, -10, 7, -34,
   24, -10, 50, 23, -59, -55, 45, 37,
   -98, 27, -17, -47, 63, 57, 13, 35,
   4, -85, -65, 52, -54, -19, -40, 4,
   -68, -61, -85, 98, -81, 44, 25, -17,
   44, -33, -31, -44, 21, -6, -29, -32,
   -2, 50, -31, -16, 46, 50, -54, -18,
   70, -88, -44, 26, -51, -34, 21, 48,
   -16, -15, 5, -28, -37, 25, -52, 25,
   37, -60, 19, -18, -49, 72, -120, -1,
   65, -61, -28, 25, -114, 89, -61, 126,
   -48, -64, 69, 37, 46, 9, 18, -117,
   -35, 64, -75, 28, 127, 33, -63, 22,
   -15, -28, -9, -41, 27, 68, -4, 54,
   4, -89, -8, -10, 83, 73, -11, -90,
   -8, 14, -92, -38, 11, -22, -36, 33,
   -37, -38, -126, -74, -5, -12, -8, -4,
   -28, -47, -30, -30, -6, 43, -5, 56,
   3, -16, -83, -73, -51, 23, -99, -10,
   -2, 57, -18, -17, -53, 3, -21, 35,
   25, -116, -20, -33, 89, -44, 49, 102,
   -74, -57, -65, -127, -33, 59, 60, 20,
   -60, -1, -18, 10, -30, 106, 3, -24,
   -15, 93, 45, -22, 7, 55, 9, -27,
   -82, 3, 19, 9, 4, -14, -43, -36,
   -19, 97, 85, 31, 42, -35, -19, -12,
   -1, 68, -53, 46, -127, -93, 16, -63,
   -58, -126, 55, 6, -52, 97, -41, 59,
   49, -9, 10, 54, -42, 5, -11, -25,
   -1, 35, 72, 52, 28, -6, -54, 30,
   -28, 18, 38, -17, 57, -8, -44, -20,
   42, -20, 94, -46, -2, -81, 110, 27,
   -66, 5, 63, 36, -51, -55, -27, 71,
   125, -5, -12, -57, 65, -98, 36, -12,
   17, -8, -13, -8, -17, -52, -109, 15,
   -31, 31, 9, -23, -22, -11, 10, 55,
   -11, -52, -69, 52, 10, -23, 47, -35,
   -4, -65, 15, 33, 53, -14, -104, 26,
   -26, -29, -8, 97, -2, 58, -127, -4,
   -106, 35, 53, -2, -71, 2, 79, 54,
   39, -74, -121, 124, 41, 25, -33, 4,
   28, -18, -9, -43, 59, -11, 31, -19,
   -122, 86, 25, 54, -40, -18, 49, -25,
   -28, 118, 65, -102, 111, -39, -7, -89,
   -38, -17, 79, 0, -50, 72, 51, 22,
   24, 36, 59, 1, 66, -119, -84, -8,
   102, 44, 15, 56, 26, -74, -29, 28,
   13, -75, 32, 78, -38, -45, -80, -90,
   13, 3, 34, -76, -122, 120, -82, -34,
   6, -32, -100, -89, 14, -14, 73, 24,
   -41, 53, 30, -80, -63, 51, -17, 33,
   47, -17, 14, -17, 32, 74, -52, 2,
   14, -67, -16, -18, -57, 18, -14, 44,
   -73, 45, 107, 38, 69, -24, -12, 114,
   -15, 91, 10, -26, -51, 78, 63, -78,
   -5, -120, 14, 32, -6, -25, -49, 67,
   20, -66, 7, 65, 46, -41, -32, 62,
   41, -50, -87, -34, 64, 70, 23, -36,
   44, -51, -127, -22, -102, 33, -58, -23,
   105, -29, -33, 47, 9, -44, 35, -36,
   -21, 126, -90, -34, 105, -6, 18, -35,
   3, -14, 65, 114, -2, -25, -27, -72,
   -63, 61, -109, -13, -113, 8, -45, 22,
   105, 6, 45, -47, 65, 16, 79, 28,
   -21, 82, 37, -15, -64, -34, -114, 29,
   67, 43, 78, 52, 34, -84, -54, -48,
   -65, 63, -8, 18, -16, 10, 3, 71,
   -101, 119, -24, 88, -26, 33, -38, -80,
   14, -123, 24, -33, -20, 52, -1, -40,
   49, -13, 8, -39, 23, -5, -11, -23,
   -10, -17, -25, 43, 29, -13, -34, -19,
   -35, -18, -21, 51, -21, -3, -19, 12,
   -2, 50, 48, 22, -56, 39, -5, -38,
   -60, -11, 36, 33, 13, -53, -9, 94,
   8, -62, 55, -11, 101, 22, 2, -8,
   -127, 98, -25, -37, -73, 71, -16, 45,
   67, 8, -17, -90, -91, 23, -120, -39,
   -9, 28, -128, 8, -52, -107, -27, 68,
   33, -31, 29, 124, -26, 30, -10, -31,
   33, 47, 9, -65, -46, 13, -90, 126,
   99, -37, -81, 1, -61, 15, -4, 4,
   -9, -34, -33, -33, -28, -49, 14, -93,
   87, -80, 59, -56, -50, -45, 45, -65,
   -97, 6, -121, 6, -113, 19, 56, -21,
   4, 12, 87, 5, -112, 126, 69, 27,
   -70, 82, 31, -27, -123, -16, 21, 32,
   -5, 83, -95, -7, -1, 93, -9, 15,
   124, 21, 21, -7, -45, -16, -66, 5,
   -34, -118, -16, -32, -34, -44, 2, 124,
   -78, 8, 90, -27, 127, 44, -28, 114,
   -30, 114, -8, 27, -56, 18, 59, -24,
   -62, 16, -25, -31, 71, 17, 3, 12,
   92, -4, -78, 37, 127, 85, -3, -17,
   80, 32, -2, 84, -71, -31, 62, -26,
   47, -81, -51, -95, 66, -52, -57, -31,
   -10, 54, 116, 88, -3, -122, -93, 7,
   37, -70, -28, -91, 39, 12, -94, 41,
   44, 70, -55, 69, 20, 56, -34, 1,
   9, -34, -37, -4, -2, 23, 68, -44,
   2, -46, -5, -72, -104, -94, -56, -30,
   -59, 56, 14, 108, 36, 115, -96, 29,
   -114, 105, -64, 5, 65, -82, 25, -10,
   117, 58, 20, -19, 122, 33, -37, 35,
   -19, -120, 6, -10, 78, -34, 126, -116,
   -37, 59, -30, 55, 47, 51, -42, 11,
   -2, -26, 29, 25, 51, -5, -34, 89,
   -29, 76, -51, -44, 9, -17, 46, -42,
   5, -52, -24, -14, 6, 127, 127, -9,
   -5, -81, -2, 65, -67, 72, 99, 14,
   -13, -6, -7, -36, -54, -6, -4, 30,
   -29, -27, -28, -56, 83, -1, 29, -24,
   -48, -23, -20, 11, -2, -4, -31, 39,
   -45, 0, -18, -73, -29, 48, 51, -20,
   61, 24, -62, 75, -32, -18, -44, -38,
   44, 26, 38, -56, 14, -34, -48, -7,
   19, -55, 20, -95, 45, 16, 13, 93,
   -13, 21, -72, 23, 124, -33, -52, 51,
   5, 8, -25, -10, -77, 102, -25, -1,
   -14, 14, 4, 16, -28, 98, 18, -43,
   -26, 12, -30, -86, -68, 81, 9, -50,
   80, -56, -11, 37, 24, -11, 28, 1,
   55, 36, 34, 23, -87, -58, 10, 31,
   -11, 19, -48, 48, 95, -12, 33, -46,
   100, 52, 32, -49, -24, -27, 46, -6,
   -31, 21, 39, 33, 63, -65, -35, 79,
   127, 11, 34, -13, -124, 10, -54, 24,
   3, 24, 11, 16, -19, -45, 36, 52,
   -32, 90, -33, -68, -51, 33, -16, 34,
   65, 98, -8, 125, 60, -83, -21, 6,
   111, 87, -46, -59, 44, -7, 89, 124,
   28, 32, 30, 68, 106, -37, -1, -2,
   -97, -57, -92, -37, 56, -75, 22, -31,
   100, -44, -10, 12, -2, 95, 36, 3,
   74, 35, 127, 51, -41, 72, 27, 59,
   -105, 103, -2, -32, -116, 23, 43, 6,
   48, -20, 110, 66, -42, -28, -41, -10,
   33, 117, 14, 89, -18, -36, 54, 39,
   88, -72, -27, 109, 27, -13, -119, 54,
   -18, -14, 85, -12, 64, 6, 44, -15,
   -66, -46, -18, 90, 109, 98, 119, -28,
   11, 46, 29, 115, -20, -106, -27, 97,
   -45, -82, 43, -103, 122, -14, -122, 24,
   10, -128, 14, 10, 72, 40, -71, -10,
   -21, -99, -103, 2, -120, 50, 0, 35,
   -100, 46, 77, 88, -28, -1, 26, -46,
   -3, -22, -37, -11, -82, -82, -128, -21,
   -16, -4, -9, -69, -5, 40, 0, -63,
   33, 19, -14, 83, 54, 24, 66, -8,
   24, -122, -44, -32, 86, 38, -3, 6,
   48, 32, 62, 34, 3, -42, 28, -11,
   -23, -23, 21, 12, -2, 36, 4, -20,
   -1, 64, -20, 11, 73, 23, -7, -50,
   42, 7, 99, 40, -19, 39, 26, 65,
   117, 7, -16, -6, 79, 70, -48, -12,
   47, 19, 7, -54, -7, -43, 39, 50,
   23, 53, -48, -97, 28, 6, 83, -25,
   42, 38, 19, 32, -59, 22, -60, -94,
   -45, -45, 83, -3, -69, 75, 34, 61,
   66, 30, 19, -14, -32, -4, 13, -38,
   8, -36, 31, -48, -56, -49, -24, 72,
   -73, 60, 17, -40, 6, 125, 27, -18,
   41, 28, 44, 29, -32, 45, -33, -6,
   -41, 123, 5, -31, 89, 92, 20, -66,
   73, -39, -51, 0, -31, 21, 69, 99,
   -50, -3, -13, -10, -5, 72, 14, -13,
   -57, 20, -33, 107, -84, 5, -57, -37,
   -10, -46, -80, -108, 3, 49, -36, -28,
   -44, 34, -125, 41, 48, -3, -33, 2,
   12, 27, -56, -41, 18, -42, -25, 81,
   -67, -86, -29, -7, 94, -89, 30, 84,
   73, -21, 40, 29, -27, -19, -35, 68,
   64, -4, -100, -102, -94, -19, -18, -30,
   -36, 26, -2, 33, -93, 56, 67, 103,
   -73, -101, -45, 18, 11, 18, -33, 43,
   34, 37, -71, 27, -38, -13, -26, -13,
   -16, 113, 33, 84, -26, -55, -17, -13,
   15, 32, -8, -37, 32, -5, 113, -10,
   126, 53, 23, -24, -52, -11, -55, -9,
   -37, -33, 40, 65, 3, -95, -65, 78,
   -13, -75, -22, 9, 93, 68, 46, 127,
   16, 87, -47, 59, -36, -5, -3, 37,
   16, 66, 19, -69, 42, -15, -18, 76,
   96, 91, -7, 24, -29, 47, -20, 56,
   45, -54, 50, -70, -52, 54, 41, 20,
   63, 71, -63, 40, 1, 80, 20, -39,
   6, -35, 71, -40, 7, -28, 63, -7,
   -49, -12, 1, -16, 73, 9, 50, -46,
   -10, 73, -81, 94, -13, 6, -1, 31,
   -19, 15, 41, 3, -17, 0, -85, -93,
   -86, -10, -37, 47, -6, -62, 30, 35,
   20, 99, 37, 63, -17, -42, -28, -96,
   2, -22, 3, 15, 28, 11, -115, 48,
   -34, 6, -30, -78, -85, 38, 25, -32,
   -29, -97, 2, 14, 26, 47, 99, 119,
   71, 8, -60, 42, -55, 30, 53, 1,
   31, -103, -20, -11, 0, 87, 37, -5,
   89, 15, -32, -12, 55, 60, 3, -32,
   -124, -2, -88, 53, -51, 55, -4, -53,
   -46, 94, 18, 57, -72, 14, -41, 11,
   14, -29, -3, -4, -9, 34, 18, -10,
   -72, -14, -82, -90, -31, 11, -120, -48,
   44, 3, -6, 79, -15, 8, -16, -89,
   20, -125, -72, 69, 19, 118, -54, -2,
   -10, 50, -28, -3, 17, -22, 104, 17,
   101, -61, -9, -117, 5, -24, -105, -117,
   -115, 28, -120, 36, -62, -77, 50, 67,
   79, -41, -9, 4, 2, 15, 114, -12,
   -16, 15, -49, 50, -122, -46, 30, 39,
   56, 49, 14, -28, -71, -125, 36, 115,
   -46, 47, -45, -16, 69, 113, -7, -119,
   -43, -16, 17, -11, 102, 120, -34, 64,
   -5, -53, 14, 0, -124, 120, 14, -26,
   42, 74, 55, -12, 103, -37, 27, -54,
   13, -54, -9, 39, 6, 6, -28, 43,
   54, 21, 46, -90, -58, 122, -21, -81,
   -13, -39, 50, 106, -2, 49, 9, -16,
   24, 15, -73, 110, 1, 104, 52, -104,
   2, -35, -17, 8, -58, 60, 26, 68,
   -123, 6, 44, 70, -40, -4, -95, -21,
   -110, 51, 80, -19, -97, -5, -50, -100,
   -23, -30, 46, -66, -18, -38, -48, 38,
   -9, -26, -71, 21, 25, 14, 16, 53,
   14, -56, 20, 79, -87, 50, -7, -28,
   52, 4, 11, -17, -26, 39, 2, 25,
   6, 13, 11, 18, -56, -36, 46, -115,
   32, -80, -44, -7, -32, -13, 74, -61,
   9, -89, 14, 80, 20, -61, 109, -21,
   -66, -34, -126, -6, 12, 22, -14, 55,
   -28, -47, -59, -12, 2, -38, 73, -42,
   91, -87, 37, -4, 29, 33, 122, 43,
   85, 41, -50, 11, 29, 60, -4, 31,
   -18, 8, -27, -75, 76, -13, 35, 18,
   -49, -34, -33, 6, 51, 51, -41, 53,
   47, 21, 62, -52, 30, 5, 16, 78,
   -22, 28, -21, 31, -16, 21, -2, 62,
   -94, -30, -83, -92, 122, -41, -113, -27,
   -51, -123, 4, -116, 4, -68, -14, 3,
   -21, -5, 29, -31, -15, -4, -27, -24,
   10, -121, -119, -30, -37, -74, -32, -63,
   -46, -69, -72, -44, 90, 84, 21, -16,
   79, -16, -32, -111, 10, -25, 97, 57,
   -59, -69, -83, -36, -24, -90, 14, 76,
   -23, -16, 2, 26, 26, -50, 23, 120,
   44, 32, -12, -29, -11, -45, 8, 41,
   -28, 107, -32, -40, -92, -8, -76, -52,
   76, 79, 93, 16, 86, 46, -14, 53,
   -65, 53, 92, 63, 44, -30, 7, 5,
   -4, 20, 22, 14, 8, 9, -58, -99,
   -30, -119, 46, 2, -23, 34, 51, -63,
   45, -84, -8, 36, -59, -2, -98, -6,
   29, 121, -26, -1, -20, 39, 25, -66,
   -56, 8, -40, -7, 25, -79, 90, 72,
   -55, -12, -20, -123, -39, -25, -65, -12,
   47, 30, 33, 55, 18, 19, -22, 35,
   86, 65, 11, 119, -32, -47, -107, 80,
   -50, -43, 44, -1, -14, 49, 17, 33,
   13, 84, 64, 125, 97, 17, 20, 20,
   -62, -7, -13, -16, -8, 18, -36, -89,
   -13, 98, 21, 108, -35, 51, 44, -127,
   -31, 40, -83, 50, -122, 16, -82, -105,
   -58, 65, 76, -31, 61, 40, 28, -92,
   43, -59, 63, -33, -33, 24, -37, -22,
   7, 51, 54, 29, 12, 40, 68, -44,
   79, 52, -3, 10, -62, 35, -26, 70,
   40, 61, 83, -73, 97, 16, 33, 49,
   0, -83, -15, -101, 67, -26, 108, 113,
   3, 93, -15, 83, 27, -67, 71, 119,
   -48, -31, -28, 4, 4, -15, -46, 13,
   -17, -70, 78, 49, 36, 21, -72, -45,
   -1, -31, -52, 1, 61, -17, -18, -71,
   69, -65, -11, 104, -25, 52, 7, -70,
   -14, -8, -16, -13, 72, 37, -91, -80,
   31, 7, -33, -59, -12, -20, 26, 48,
   69, -16, -87, -13, -11, -14, -14, 58,
   -2, -3, -119, -17, 31, -17, -23, 75,
   62, 43, -97, -42, -23, -9, -5, -11,
   -43, 21, 37, -37, 6, -3, 14, 8,
   18, -98, 37, -14, -50, -36, 31, 123,
   7, 19, 95, 17, 22, 15, -7, 59,
   62, 18, -93, 10, 23, 42, -26, -23,
   -32, -28, 10, 42, 19, 38, 8, 31,
   -109, -5, 81, -25, -40, 35, -96, -117,
   -12, -4, -15, 13, 84, -70, -4, -93,
   24, 28, -66, -45, -70, -118, -33, 116,
   -6, 7, -54, 2, 11, 85, 34, -4,
   67, 67, -96, -13, 3, 11, 50, 62,
   -61, -28, 7, -17, 11, 22, -61, 62,
   45, 42, 50, -26, -43, 114, 69, 121,
   53, 127, 15, -3, 50, 30, 70, 26,
   25, -15, 35, -72, -48, -11, 15, 29,
   42, -40, 12, -38, -3, 16, -81, 65,
   53, 84, -48, -66, 11, 23, -22, 77,
   21, 115, -87, -35, -50, -89, -121, 67,
   18, 8, 40, 66, -3, 11, -24, -100,
   70, 35, 16, 16, -31, -62, 71, 64,
   74, -124, -15, -26, -17, -26, -55, 71,
   -22, 20, -35, 24, -48, 40, 56, 27,
   -35, -14, -8, -34, 113, 41, 58, -8,
   -2, -114, -38, -73, -28, -57, 70, 3,
   -22, 64, 31, 29, -46, -43, 88, 11,
   -67, -6, 71, -27, -24, -38, -24, -80,
   -21, 36, -32, -84, 37, 55, -22, 24,
   -54, 11, -94, -28, 8, -30, -46, 39,
   25, 0, 6, 93, 34, 8, 3, 26,
   -76, -69, 4, -71, 57, -65, -90, -40,
   -43, -56, -16, -53, -11, -11, 7, 45,
   -16, 7, 11, 39, -38, -9, -81, -86,
   -50, -16, -39, -18, -11, -10, -69, -44,
   -58, -49, 58, -63, 2, 64, 5, -81,
   -36, 42, 56, 24, 11, 2, 36, 92,
   78, 33, -2, -98, -55, 46, 14, 14,
   42, -14, -12, -6, -41, -69, 88, -122,
   36, 34, 12, -15, 18, -98, 58, -28,
   44, 4, -107, 85, 46, 27, 8, 58,
   66, -70, -8, 21, -110, -9, 89, -83,
   55, 59, -110, 51, 44, 11, 16, 108,
   43, -33, -18, -34, 2, -3, 28, -50,
   53, 14, 44, 6, -19, 23, 41, 75,
   72, -18, 12, -51, 34, -86, 28, 30,
   -103, 74, 4, -43, 49, 10, -31, -10,
   -17, -65, -82, -92, -17, 25, 1, -9,
   30, 81, 15, 9, 72, 52, 27, 19,
   61, 14, -64, 62, 5, -1, -16, -21,
   -25, -59, 28, -7, 28, -35, -28, -17,
   -16, -46, -25, -25, -79, -33, -112, 21,
   41, 13, -6, 53, 7, 17, -54, -39,
   -91, -94, 70, -128, -66, 28, -7, -93,
   -120, 54, -47, 35, -111, -58, 54, -5,
   -48, 11, -18, -104, -70, -78, 54, -7,
   17, -8, -96, 72, -119, -125, 28, -107,
   14, 16, -38, -48, 63, -21, 74, -45,
   -65, -94, 118, 39, -100, 39, -41, 13,
   19, -122, -55, 10, 23, 33, 20, -68,
   24, -41, -113, 12, 95, 26, 0, -17,
   -42, -66, -11, -107, -86, 76, 29, 49,
   -108, 112, -28, 124, -55, -96, -23, 34,
   91, -30, 61, -94, 102, -18, 19, -77,
   -60, 13, -125, -28, 7, -34, -91, 22,
   -12, -50, 17, -8, 2, 7, -18, -62,
   51, -37, -55, 19, 35, -30, 8, 46,
   -42, -56, -128, 61, -35, -16, -81, -8,
   -30, -59, -22, -111, 6, -45, -76, 29,
   16, -72, -34, -28, 22, -5, -116, 3,
   18, -9, -56, -48, 18, 56, -97, -21,
   -121, -116, -6, -24, -62, -26, -21, -69,
   -52, -48, -22, 23, 72, -35, 68, 39,
   47, 37, -18, 0, -76, 26, 114, -10,
   25, 5, -12, 70, 17, -105, -25, -112,
   5, 24, -8, 7, -38, -119, -21, 34,
   125, -125, -2, 5, -6, 81, 40, 60,
   54, -104, 22, -42, -2, 120, -33, 16,
   38, -30, -23, -83, -60, -1, 86, 92,
   -59, -10, -6, -11, -68, -96, -53, -3,
   -9, -17, -17, 109, 34, -15, -121, -40,
   5, 89, -38, -26, 38, -47, -80, -40,
   -116, -34, -30, -76, -35, -39, -118, 27,
   0, -67, 76, 0, -5, -2, 72, -15,
   -1, -94, -75, -62, 37, -6, -91, 59,
   -15, -8, -124, -25, -46, 17, -22, 28,
   5, -50, 21, 63, -7, 12, 67, 33,
   16, -35, -73, -120, -30, -14, -113, -77,
   45, 84, -16, -50, -21, 44, -97, 6,
   -61, -40, 29, -104, 28, 4, -17, 50,
   14, 44, 13, -61, -34, -28, -8, 105,
   67, 0, 31, -113, -121, -65, -21, 24,
   57, 12, -16, 9, -5, -1, 38, -61,
   -30, 60, -7, -55, 7, 32, 39, -33,
   12, 30, -60, 13, -75, 3, 55, -40,
   -16, 20, -86, 68, 24, -57, 72, 24,
   -8, 62, -126, -42, 54, 122, 125, 64,
   25, -38, -45, -78, -33, -109, 57, 15,
   -79, -1, 73, 7, -20, -42, -67, -13,
   -24, -69, 38, -38, -22, -115, 70, 15,
   -104, 67, -35, -114, 27, 31, -80, -5,
   27, -8, -11, -58, 39, -29, 1, -18,
   -4, 23, -12, 46, 33, 32, 21, -14,
   8, -13, 43, -8, 25, -37, 55, -30,
   -37, -39, -2, -117, -12, -14, -3, -10,
   30, -27, 9, 7, -32, -25, -101, -115,
   -40, -8, -5, -38, 34, 44, 45, -62,
   45, -25, 100, -29, 52, 24, -32, 66,
   31, 112, 72, 12, 121, -57, 21, 125,
   55, 36, -33, 22, 2, 52, 40, 25,
   -1, 26, 6, -23, -18, -16, 11, 25,
   17, -62, 6, -60, -25, 65, 50, 114,
   62, -44, -19, 43, 70, 76, 40, -8,
   47, -31, -64, 17, -34, 42, 8, 20,
   -19, -7, -59, 54, 26, -31, 120, 18,
   -55, -3, 4, -2, 58, -113, 10, -41,
   -6, -13, 2, 9, 28, -20, -34, 74,
   -44, 45, 49, 1, -9, 72, -13, -65,
   -50, 17, 22, 32, -10, 87, -21, -43,
   -21, -24, 5, -83, 20, 29, -54, 14,
   -20, -48, 94, 125, -17, 16, -15, 24,
   15, 17, 26, -34, 52, -4, 18, -59,
   -1, 4, 14, 62, 17, -54, -41, 29,
   -77, -15, 31, 29, 13, 5, 27, -35,
   33, 8, 48, -21, 30, -5, -22, -67,
   -118, 18, 0, 69, 26, 2, -120, 65,
   27, -28, 57, 41, 48, 7, -52, 14,
   6, -11, 54, -17, -40, -28, 82, -14,
   -27, -12, 2, 16, 30, -113, 13, -48,
   -37, 61, 72, 2, 8, -30, -30, 39,
   -78, -96, 42, -80, -16, 45, -28, 57,
   24, -123, -47, -7, 32, -25, 6, -76,
   50, 97, -89, -40, -49, 89, 70, 114,
   -29, -14, -43, -127, 83, -100, -79, -16,
   -19, 78, -27, 46, -30, -65, 37, 46,
   34, -12, -41, -29, -17, -68, 53, 99,
   59, 51, 69, -11, 32, -5, -53, 33,
   -14, 4, 55, -68, 23, 26, -63, -123,
   -31, -39, -67, 58, -6, 23, -3, 25,
   41, 12, -31, -11, -55, -63, -90, 8,
   -11, 27, -31, -127, 15, 29, 28, -74,
   -46, 44, -1, -122, -46, -44, -113, 40,
   11, 23, -44, 4, 6, -26, -118, 30,
   -70, 42, 19, -29, 45, -76, 34, 11,
   -94, 1, 125, -26, 11, 35, 39, 48,
   -20, -83, 48, -36, -23, -53, 11, -53,
   -38, 57, -34, 33, -59, -2, 51, 121,
   -3, -29, 30, -48, 51, 20, 36, 2,
   -22, -12, 42, -7, -8, -52, 20, -66,
   61, -64, -53, -21, -83, 9, -20, -39,
   61, 6, -75, -13, -12, 42, 90, 48,
   -17, 47, -3, -97, 4, -87, -7, -39,
   -19, -14, -64, 70, 27, 86, 30, -23,
   -23, 110, -21, -81, -38, 63, 20, 44,
   10, -1, -106, -26, -122, -45, -25, -61,
   -7, -45, 3, -3, -8, 4, 1, -38,
   -14, -41, -31, -10, 2, 0, -54, -37,
   96, 25, -52, 4, -2, 25, -2, 16,
   21, -15, 39, -29, 58, -77, 62, 39,
   -53, -66, -14, -78, 31, 47, 5, -43,
   12, 38, 45, 33, -33, 53, 31, -14,
   18, -28, 40, 36, -32, 68, -77, 78,
   -31, 10, 124, 23, 26, 61, -46, 80,
   17, -17, -11, -64, -27, 72, -54, 55,
   -1, -8, -102, 33, 9, 38, 39, 122,
   -36, -21, 51, -27, -16, -12, 35, -7,
   -13, 0, -117, 49, 0, -53, 4, -91,
   -61, 5, -30, -102, -43, 17, 13, -48,
   44, -40, 27, 84, -19, -13, 72, 101,
   10, 12, -16, 15, -37, 18, -37, 1,
   22, -79, -55, -42, 6, 123, -8, -31,
   -19, 35, -31, -74, -35, 30, -21, 30,
   -76, -8, -57, 11, -9, 29, -46, 29,
   -30, -15, -1, -43, 13, -9, -3, -72,
   -3, 36, -62, -91, -5, 32, 7, 10,
   0, -46, -44, -8, 23, 39, -3, 15,
   13, 19, -107, 7, -45, 11, 30, -72,
   -23, -25, -93, -116, 19, -1, -36, -25,
   -4, -59, 18, -22, -88, 0, -20, 12,
   82, 10, 44, 89, 64, 100, -39, 101,
   60, 70, 93, 108, 121, 120, -20, 31,
   20, 66, 123, -11, -118, 4, 82, 32,
   -19, 24, 4, 6, 28, -9, 57, 76,
   -15, 79, 86, 123, 79, -94, 23, 73,
   90, -54, -43, 4, 12, 12, 121, -49,
   3, -45, -6, 33, -10, 74, -30, -56,
   35, 54, -92, 29, 10, 82, 84, 95,
   112, 36, -54, -120, -83, 78, -1, 36,
   54, 57, 3, 26, -48, 1, -46, -3,
   -22, 48, 45, -38, -51, -19, 33, -14,
   -88, 61, -39, 17, -4, -56, -100, 19,
   -40, -72, 7, -33, -6, 21, -64, -122,
   -40, 14, -119, -102, -69, 14, -19, -8,
   60, 23, -128, -37, -28, -40, -2, 13,
   -4, -22, -15, 15, -2, -35, 42, -118,
   -4, -77, -1, -127, -35, -19, -68, -58,
   -72, -4, 8, -1, -15, -4, -125, 6,
   -108, -9, 56, -121, -6, 13, 0, 1,
   -118, 119, -13, 42, -52, -72, -72, 52,
   -61, -18, -37, 63, -112, 23, 31, -119,
   34, 61, 46, 127, -68, -120, 19, -21,
   -12, 41, 25, -112, 21, 92, 83, 78,
   -63, -20, -61, 8, -24, 27, -19, 76,
   31, -4, -22, 2, 8, 88, 122, -27,
   -72, -30, -52, -42, 25, -44, -67, 33,
   -65, 28, -64, -36, -127, -5, 119, 23,
   -112, -8, 84, 51, 77, -32, 93, 21,
   -3, 9, 10, -23, -109, 40, -99, -9,
   -10, 32, -21, -1, 1, -31, -54, 47,
   -49, -5, -83, -61, 4, 1, -2, 7,
   45, -85, -78, -9, 122, -24, 26, 57,
   -10, 18, -14, -4, 3, -97, -7, -17,
   -4, -24, 0, -69, 40, 67, -63, 20,
   51, 6, -36, 21, 53, -57, -41, -103,
   -34, 29, -88, 2, 49, 56, 31, -37,
   -26, -8, -22, 28, 18, -44, 0, -54,
   61, 52, -97, 56, 7, 90, -17, 97,
   1, -116, -86, -80, -64, -18, -26, -47,
   105, -111, -16, 49, 23, 116, 127, 1,
   -11, 8, -2, -31, -51, 59, 21, 78,
   90, 61, -4, -8, -82, 117, -34, 102,
   8, -63, 96, -41, 25, 35, -15, -18,
   -13, 79, -33, -34, -75, -103, -82, -41,
   37, -56, 13, 54, -84, -56, 88, 7,
   -66, -74, -3, -23, -118, -19, -34, 7,
   -44, -8, 26, -37, -9, 52, -58, 27,
   54, -128, -15, -5, -126, 27, 61, 50,
   -15, 72, -37, -35, 17, -125, -16, 27,
   -34, -41, 9, -77, -1, 23, -91, -66,
   38, -38, 41, -90, 67, -18, 16, 58,
   23, -22, -11, 25, -10, 13, -71, 90,
   -13, 34, -41, 26, -124, 40, -42, -15,
   -29, 33, -8, -41, -84, -17, 78, -73,
   120, -31, 69, 77, 54, 96, 7, -25,
   98, 48, 120, 78, 65, 59, 59, 124,
   69, 41, 33, -93, 32, 51, 44, -3,
   -127, -90, -25, -26, 37, 27, -14, 119,
   -46, 84, 4, -27, -3, -53, -12, 49,
   86, 44, -15, 69, 15, -95, -18, 99,
   27, -17, 1, -35, -11, 27, 15, -30,
   -78, -3, 41, 7, 127, -1, 102, 24,
   45, 39, -37, -50, 11, 0, -16, 5,
   23, -18, 63, 89, 63, 34, 47, -126,
   -8, 77, 21, -121, -51, -9, 29, 42,
   43, 60, -107, 24, -35, 40, -36, 42,
   -35, -62, -23, -19, 43, 2, -52, 12,
   -70, 17, -122, -23, -54, 45, 19, 31,
   40, -60, -9, 8, -38, 3, -62, -38,
   15, 29, -15, 45, 18, -42, 66, 17,
   48, -124, 39, -53, -52, 36, -16, -10,
   18, 90, -29, 2, 26, 15, -11, -22,
   65, 18, 53, 89, -88, 122, -86, 82,
   -63, -16, 111, 40, 55, 61, 22, 126,
   17, -45, -58, 23, -30, 61, -98, 48,
   -35, -72, -7, -52, 25, -89, 80, -98,
   15, -85, 78, 13, 6, -11, 52, -2,
   29, -3, -3, 7, -37, 88, 61, -98,
   8, -35, 10, -73, 11, 63, 27, -38,
   30, -46, 2, 45, 20, 7, 45, 74,
   67, 78, 27, -28, 33, 53, -119, -42,
   32, 56, 34, -67, 49, 3, -36, 11,
   -62, 122, 6, -47, -3, -17, -40, 35,
   -48, 98, -67, -31, -35, 11, -64, 42,
   -18, -34, 33, -48, 26, -28, -6, -68,
   33, 2, -70, -78, -27, 45, -20, 6,
   13, -43, -35, -23, 4, 25, -49, 18,
   8, 1, -15, -26, -41, 13, -16, -28,
   -8, -24, 23, -87, -22, 6, -26, 33,
   -16, -35, 19, -5, -27, -7, -74, 5,
   -81, 26, 15, 119, -15, 35, -111, -64,
   -70, -53, 34, -9, -30, -14, 20, -51,
   57, 15, -13, 57, -74, -7, -39, -36,
   -3, -30, 13, -32, 8, -20, 47, -61,
   -63, -53, 33, 15, 32, 24, 81, -39,
   -42, -43, 46, 29, 26, 6, -30, -6,
   42, 11, 23, -31, -22, 18, 18, -53,
   28, 30, -18, -49, 53, -57, -13, 27,
   31, -1, -7, -21, -6, -100, 49, -69,
   120, -53, 10, 59, 14, -24, -27, 80,
   -63, -28, -26, -9, -13, -65, 8, -28,
   -13, 1, 66, -4, -20, -5, 25, -41,
   -18, 37, -16, -17, 9, -52, -32, 92,
   -26, -8, 9, -42, 26, 2, -15, 81,
   -13, -20, -7, -14, 75, -36, 44, 10,
   6, 21, -38, -74, 15, 12, 58, -34,
   -22, 69, -41, -19, -60, 42, -57, -12,
   9, 19, 10, -18, 3, -42, -23, 32,
   9, 83, 38, 76, -111, 76, -98, 88,
   -114, -63, 0, -19, 41, 37, -33, 36,
   -7, 8, 53, 74, 51, 12, -16, 6,
   -15, -127, -5, 87, -51, 27, 72, 12,
   -104, -7, 53, 124, -21, -103, 122, 14,
   56, -21, 52, -64, -23, 88, 122, -82,
   0, 13, -54, -52, 31, 93, 122, -49,
   15, -71, 84, 41, -53, -124, -43, 88,
   70, 42, -5, 120, 77, -23, -94, -57,
   51, -79, 58, 0, 8, -21, -61, -19,
   -37, 126, -11, -53, 20, -10, -68, 79,
   -124, -30, -59, -25, -8, -29, -125, 26,
   -36, -28, -64, -8, -5, 100, 70, -20,
   7, -126, -54, 4, -1, 45, -18, 73,
   -19, -123, -64, 11, 20, 22, 1, 1,
   3, -12, -41, 91, -69, -75, 16, 46,
   -29, -66, -31, -79, -85, -10, 41, -10,
   -83, -121, -10, -17, -90, 6, -128, -51,
   76, 40, -19, 81, -123, 104, -17, 88,
   19, 30, 92, 58, 29, 95, 14, 84,
   109, 12, 20, -96, -16, -20, -45, -120,
   -13, -98, -126, 66, -104, 6, 106, 91,
   -1, 59, -50, 5, -24, -66, 32, 69,
   68, 29, 23, -24, 63, -17, 55, -57,
   5, 20, 66, -9, -25, 74, -16, -115,
   71, -6, 4, 63, 34, -45, 30, 58,
   37, 26, -22, -26, -32, 6, 9, 83,
   -30, -8, -2, 75, 43, 71, -62, -104,
   44, 35, -75, -85, 21, -51, -1, 74,
   -97, 26, -67, 28, -34, -75, -62, -4,
   -55, -34, -24, 12, 16, -20, -4, -54,
   -62, -7, 20, -126, -1, 24, 4, 10,
   32, -44, -76, -13, -49, -28, 6, -6,
   34, 1, 17, 84, -22, -2, -40, 30,
   -34, -35, -91, -57, 30, 20, -15, 14,
   -27, 25, 24, 5, 13, 7, -112, -3,
   -30, 38, -33, 3, 25, 111, -20, -48,
   -23, 58, 5, -30, 29, 122, -72, 45,
   110, -16, 47, -21, -16, 0, 34, 13,
   40, -19, -14, 36, 9, 24, -6, -59,
   39, 121, 123, -29, 25, 38, 52, 53,
   31, -107, -89, 12, -29, -9, 59, -3,
   -13, 41, 67, 0, 64, 46, -23, 17,
   -52, 4, 34, -41, -47, 54, -19, 125,
   -13, -17, -56, -6, -1, 4, -28, -59,
   72, 23, 39, 78, -114, 31, 5, -35,
   -39, 80, -30, 19, -117, -45, -74, 53,
   -26, 120, 22, -99, -24, 49, -60, -37,
   -15, 24, -29, -1, -2, -19, 4, 34,
   -8, -47, -15, 1, -78, 68, -33, 18,
   -11, -14, -6, -29, 10, -57, 2, -22,
   37, 1, 52, -118, -22, -81, 25, 4,
   35, -25, 16, -22, -97, -12, -73, 26,
   13, 11, -36, -48, -63, -24, -16, -31,
   19, -67, -11, 127, -13, 9, -31, 110,
   83, -107, 25, 33, 63, 122, -30, 18,
   -61, -128, -49, -92, 10, -103, -37, 1,
   -21, -91, 80, 61, 41, -84, -24, 112,
   -15, -38, 2, -3, 7, 22, 68, -67,
   44, -15, -75, -13, -71, 7, 52, -118,
   -88, 27, -34, -69, 30, 4, 88, -91,
   4, -5, 13, -14, -32, 9, 47, 93,
   -27, 98, -5, 40, -65, 38, -21, 35,
   62, -40, 10, 14, 4, 13, 17, -50,
   -23, 12, -90, -13, 35, 63, 23, 35,
   -128, 3, -103, 14, -53, -72, -31, 13,
   -42, -63, 17, -58, 6, 25, -24, -116,
   -48, -20, -41, -39, 80, -47, -54, -27,
   38, -50, -116, -38, -76, 18, -39, -38,
   12, 15, -75, 12, -62, 10, 33, -23,
   -21, -38, -95, -118, -71, -11, -25, 4,
   -52, -118, -2, -11, -117, -38, -119, 12,
   -24, -53, 43, 8, 64, 21, -37, 53,
   27, -54, 40, -83, 55, 90, -16, 48,
   39, -35, 102, -15, -63, 94, -6, 45,
   -23, -64, -123, 43, -29, 7, -23, 118,
   -58, -46, 23, -73, 37, -53, -8, 7,
   -9, -24, -33, -48, 31, 26, 28, 52,
   -48, 43, 33, -22, 56, 77, -26, -85,
   -66, 42, 0, -49, 12, -18, 26, 56,
   -13, 13, -14, 7, -29, -4, -89, 40,
   25, 45, -15, 35, -7, 42, -7, -59,
   -10, 30, -92, -29, 3, -60, 1, 12,
   -6, 64, 0, 57, -99, 24, -46, 13,
   1, 56, -21, -11, 0, -41, -15, -28,
   -36, 14, 17, -42, -57, 49, -9, -11,
   -23, 16, -103, 18, -28, 1, 13, -86,
   4, -7, -22, -6, 5, -11, 41, -32,
   55, -45, 1, -125, -39, -20, -12, 0,
   -20, 66, -17, -17, 3, 33, 24, 3,
   55, -100, -103, 49, -127, 59, 74, -10,
   -93, -60, 45, -27, -23, 13, 107, 38,
   -75, -31, 70, -10, 12, -104, -68, -6,
   31, 82, 17, 74, 56, 113, 72, 42,
   -52, -4, 75, 40, -117, -16, 15, 42,
   19, 6, 33, -41, 92, 60, -13, 28,
   -12, -17, -11, -90, -118, 35, 21, -63,
   -32, -48, -50, 22, -25, -20, 41, 28,
   22, 24, 8, -7, 14, 30, -20, 5,
   59, -28, -21, 2, -41, 65, 56, -47,
   -94, -5, 19, -82, -60, -16, -22, -73,
   16, 65, -35, 49, -34, 26, -20, 51,
   -28, -2, -34, 81, 8, -53, 2, 50,
   -43, 0, -48, -78, -5, -7, -37, 26,
   98, -22, 7, -10, 37, 0, -23, 118,
   -14, -33, -11, 23, 3, -64, 3, 41,
   102, -56, -101, 34, 1, 82, -22, -66,
   -1, 7, 58, 3, -27, -57, -7, -7,
   -72, 0, 84, 17, 14, 126, -87, 35,
   -3, 70, 126, -43, 50, 90, 52, 10,
   102, -35, 23, -40, -91, 15, 26, 6,
   102, -42, 16, -84, -9, -40, 63, 13,
   27, -14, 98, 120, 59, -123, 21, 48,
   121, -61, 32, 49, -23, 13, 45, 45,
   58, -76, -14, -35, -6, 65, 32, -57,
   99, 14, -81, 34, 34, 46, 70, 9,
   31, -23, -48, -14, 14, -9, -62, -48,
   -18, 103, -45, 9, -8, 29, 46, -17,
   45, 41, -58, -53, 1, -35, 31, -80,
   -26, 30, 88, -39, -76, 40, -9, 24,
   10, -26, 31, -48, -17, 16, -10, -126,
   -57, -22, -127, -20, -50, 62, 12, 65,
   43, -23, -63, 6, -64, 23, -38, -11,
   -91, -43, -6, 5, -21, 40, 49, -120,
   -58, 7, 20, -13, 44, -27, 61, -7,
   -21, -83, 44, -28, 9, -77, -45, -15,
   -97, -80, -25, -29, 89, -43, -51, -7,
   -3, -40, 89, -67, 118, 3, -38, 5,
   4, 12, 6, 79, -28, -6, 27, -17,
   -23, 74, 33, 29, 22, -97, -64, -119,
   33, 10, -115, 124, 33, 59, -41, 49,
   34, -77, 3, -31, -15, 67, 31, 47,
   89, -66, 33, -40, 33, -5, -46, -44,
   -25, 109, -93, 50, -119, 26, 122, 85,
   10, -1, -29, -124, 61, 21, -67, -41,
   -47, -55, -27, 123, -30, 20, -88, 78,
   -49, -4, -88, -17, -10, -7, 86, -48,
   -30, 82, 46, 42, 45, -23, -112, -32,
   1, -35, 0, -70, 49, 5, -65, -128,
   36, 86, 14, 127, 9, -24, -16, 6,
   -42, 36, -127, -91, 24, -112, -48, 32,
   -48, 17, 50, -123, -4, 68, -35, 10,
   105, 5, -2, -126, -34, 57, -123, 14,
   25, -27, 1, -85, 3, -28, -123, -51,
   8, 15, -60, 9, 28, -71, -67, 88,
   24, 65, 123, -28, 20, 65, 79, -45,
   118, 63, -88, 83, -98, 91, 11, -31,
   118, -109, 36, 53, -68, 11, 22, -76,
   -38, -14, -85, 116, 109, -28, -34, 47,
   41, -9, -27, -27, 4, 17, 2, 73,
   86, -68, 56, 13, 40, -24, -23, -4,
   -45, 80, -84, 28, 8, -32, 116, 87,
   -19, -7, 10, 42, -43, 104, 34, 13,
   39, 37, 13, 80, -1, -20, 51, 27,
   -30, 79, -45, -5, 10, 25, 91, 24,
   -43, 22, 99, 100, 32, 8, 60, 100,
   48, -10, 5, 15, 15, 26, 6, -51,
   40, 19, 45, 127, -11, -46, 31, -26,
   -50, 54, -9, 21, 4, -126, -37, -16,
   -66, 23, 17, -28, -10, 55, -31, 23,
   37, 22, 13, -10, 86, -17, 6, 51,
   16, 44, -5, -31, 42, 4, -73, -44,
   14, -5, -2, 1, 14, 7, 37, 11,
   1, 13, 11, 5, 4, -37, 10, 19,
   5, 3, -15, 15, -26, 17, -5, -1,
   30, 32, 8, -7, -5, -12, -12, 11,
   6, -26, -19, -9, 8, 7, -10, 19,
   11, -3, 13, 14, 6, 7, -13, -5,
   39, -17, -6, 33, -8, -16, 31, -35,
   1, -32, -62, 16, 11, -6, 37, -5,
   -16, -10, -47, -10, 12, -9, 26, 4,
   49, 1, -18, 26, 10, -5, -23, 17,
   -21, -35, -70, 58, 22, 5, -62, 17,
   -9, -15, 25, 7, 9, 14, 3, 17,
   0, -9, 9, 8, -5, 22, 4, -1,
   7, -7, 32, 24, 10, -39, 3, -27,
   33, 3, 4, -3, -1, -9, -3, -1,
   -27, -2, 4, -3, 4, 0, 1, 5,
   -11, 11, 15, 10, 6, 0, -8, -13,
   3, -1, 12, 9, 7, -6, 5, -15,
   44, 18, -14, -17, -16, -15, -26, 25,
   -7, 3, 9, 15, 0, -11, 10, 7,
   2, -14, -43, 8, 45, 18, 1, -5,
   1, 18, -12, 1, -25, -18, 1, -63,
   4, 32, 8, -52, 15, -54, -27, 12,
   -27, -35, -53, 18, -10, -14, 34, 4,
   -23, -10, 51, 54, 5, 20, -19, 62,
   -66, -38, 27, -18, 10, 43, 40, 67,
   -9, -29, -34, 54, 1, 18, -17, 61,
   26, 5, 113, 22, 1, 6, 63, -29,
   47, 118, -41, -12, -4, 7, -41, -27,
   -3, 14, 1, -20, 38, -15, 10, 12,
   -35, -38, -33, -9, 10, -56, -38, -9,
   -9, -55, 26, 26, -15, 5, 12, -43,
   30, 8, -68, -11, 14, -33, -2, 23,
   8, -8, 27, 3, 22, -15, -23, 14,
   22, -44, 12, -52, 36, 1, 3, -40,
   -55, 16, -40, 7, 27, 27, -45, 22,
   -17, 26, -23, -26, -2, 30, -15, 19,
   4, -1, 30, -24, -3, -36, -33, 13,
   13, -21, -1, 28, 21, 32, 19, -7,
   -13, 16, -9, -23, -33, -66, -13, -44,
   15, -18, 14, 9, -23, -68, -7, 55,
   -12, -98, -32, -4, -6, -13, 11, 33,
   -30, -5, -27, -40, 52, 106, -40, -13,
   19, -35, -17, -40, -24, 9, -90, 54,
   -1, -58, 15, 101, 18, -15, -105, 90,
   39, 23, -7, 70, 8, -24, -89, 19,
   -21, -8, 18, -74, 112, -86, -14, 47,
   -81, 43, -50, 2, 13, -9, -38, 23,
   -12, -64, -10, 13, 23, 29, 106, -25,
   -22, -115, -43, -5, -2, 5, 7, 7,
   33, 8, -60, 10, -48, -47, 6, 50,
   43, -3, 15, -17, 36, 1, -17, -14,
   7, -22, -24, -110, 21, 3, 64, 99,
   -31, 3, -10, -21, -7, 20, -61, -22,
   -50, 31, 35, 0, 4, -8, -35, -26,
   13, 56, 32, -12, -10, -7, -45, -5,
   15, -17, 78, -11, 51, 15, -26, -16,
   -40, -20, 31, 0, 12, -52, 25, -33,
   22, -26, -12, 81, -17, -19, -12, 3,
   60, -76, 11, -5, 24, 9, 34, 2,
   54, 12, -68, -18, 10, -33, 50, -2,
   -52, -43, 10, -18, -6, -20, 69, -4,
   15, -59, -21, 5, -18, -45, 32, 21,
   87, 19, -24, -85, 26, -56, 64, 27,
   -14, -35, 13, -18, 45, -33, -77, -36,
   -123, 55, 13, 61, -15, 6, -41, -21,
   86, -19, 72, -10, -12, -27, -114, -25,
   -8, -31, 8, -4, 17, -27, 31, -5,
   -1, -10, 52, 55, -70, -55, 23, 52,
   45, 32, -57, -30, 6, -20, -1, 20,
   -48, -10, 47, -21, 13, -27, 50, -25,
   46, -20, 7, 12, -3, -39, -36, 22,
   -42, 24, 27, -12, -13, 3, -28, -52,
   14, 48, -13, 30, -6, -4, -37, 13,
   -12, 28, -9, 48, -30, -25, 0, -6,
   49, -9, 39, 10, 66, -32, -43, 85,
   5, -4, -9, 76, 16, 46, -18, -122,
   -59, 48, -35, -26, 20, 13, -23, -41,
   -26, 51, 120, -54, -38, -53, -1, 126,
   3, 8, 84, -49, -40, 33, 88, 113,
   22, -54, 0, 44, 10, -76, 80, -75,
   66, -58, 10, 109, -24, -17, 49, 11,
   -32, 1, 15, 55, 103, 56, 10, 48,
   -28, 83, 6, 28, 19, 5, -46, 23,
   89, 74, 32, 4, -24, 23, 0, 26,
   11, 38, 42, -6, -2, -8, 5, -8,
   -7, -9, -1, 40, 15, -59, 8, 43,
   -36, 24, -75, 43, -37, 0, -43, -27,
   -15, -78, -11, 17, 9, -12, -41, -36,
   -87, 7, -36, 1, 15, -29, 27, -60,
   106, 77, 4, 39, 20, -5, 123, -45,
   -2, -28, 8, 6, -32, 20, -8, 3,
   -27, 13, 0, -75, 6, -52, 8, -2,
   105, 89, 6, 22, 29, -18, 20, -60,
   39, 61, 39, 14, 2, 26, 15, -21,
   14, 95, 57, -7, 29, -43, 10, -70,
   -23, 112, -14, -24, -41, 2, -25, -121,
   30, 111, -19, 23, 24, 48, 21, 85,
   -3, -31, 6, 16, -3, -59, -120, 44,
   33, -11, 7, -126, -128, 5, 10, 19,
   73, -36, 24, -16, -18, 57, -103, -126,
   -16, 67, 39, -40, 120, 61, 2, -44,
   -1, 45, -14, 56, 12, 30, 46, -6,
   13, -8, 30, 25, -54, -6, -8, -7,
   -38, -23, -16, 16, 56, -19, -13, 36,
   -70, 9, -22, -8, -67, -3, 16, 6,
   -22, 87, -6, 23, 0, 3, -49, 71,
   21, 41, 55, 14, -25, 8, -8, -8,
   127, 62, -75, -25, -2, 4, -46, 49,
   -123, -58, -92, -127, -23, 22, -125, -32,
   34, 125, 13, 93, 53, -47, 122, -80,
   50, 119, 1, 40, -127, -118, 33, 124,
   22, -93, 9, -38, 49, 58, -52, -117,
   41, 120, -120, 44, -74, -7, 9, -26,
   -107, 7, 21, 13, 72, -7, 116, 45,
   -82, 3, 60, 104, -127, -81, -122, -69,
   -105, -28, -6, -16, -12, 97, -113, 119,
   -48, 127, 124, 124, -126, -6, 78, -72,
   72, 38, 127, 34, 116, 33, 34, 127,
   45, -17, 28, 127, 65, -124, -29, 23,
   -128, 50, -18, 110, 76, -70, -125, -20,
   -65, -49, -44, 20, 20, -12, 93, -31,
   -105, -120, 71, 113, 51, -125, -56, -46,
   -70, 60, 68, -54, -126, 84, -121, -39,
   -66, -125, 120, -13, 124, -24, 67, -8,
   120, -14, -93, -52, -78, 11, -27, -52,
   65, -128, 11, 17, 6, -5, 32, 120,
   -121, 0, 45, -3, 93, 104, 108, -41,
   -7, 46, 19, -10, 93, -27, -91, -112,
   -128, -125, 45, 21, -125, 1, 64, 38,
   -127, 97, -5, -37, 94, 52, 24, 122,
   -125, 23, 98, 63, -37, 85, -40, -63,
   -1, 93, 127, -8, 60, -56, 94, -16,
   127, -96, 17, 58, -6, 110, 71, 66,
   -4, -95, 12, 81, 105, 19, 83, -84,
   125, -66, -46, -25, -58, -76, -125, 39,
   127, -57, -75, -56, -64, 56, -123, 45,
   -53, -83, -7, -111, 44, -126, 34, 97,
   -65, 104, -67, 114, 11, 127, -122, 120,
   -64, -8, 6, -106, 24, -55, 104, -4,
   -52, -38, 21, 126, -119, -95, -8, -127,
   122, -23, 126, -60, -54, 42, 36, 120,
   -128, -46, -127, 55, -40, -38, 70, -8,
   -125, -127, -124, -128, -14, -56, 115, 60,
   60, -123, -37, -128, 48, 104, 125, -88,
   -67, 38, 23, 23, 106, -83, 121, -30,
   -44, 126, 17, -42, -23, 127, -1, -73,
   -76, -124, 104, -5, -58, 86, -112, 23,
   -57, -100, -2, 26, 21, 88, 75, -127,
   71, 124, -27, 94, 25, 120, -125, -120,
   -113, 126, -127, 31, 127, 18, -124, 74,
   -125, 15, 23, 43, 103, 123, 74, -47,
   96, -102, -14, 127, -20, 124, -82, -121,
   106, -112, 5, 44, 99, -17, 122, 69,
   -46, 74, 29, -56, -127, -53, 51, 93,
   79, -85, 87, -126, -100, -29, 116, -121,
   127, 126, -21, 119, 3, -77, 17, 120,
   52, 127, 106, -4, -112, -30, 124, -34,
   2, -103, 125, 127, -68, -109, -36, 3,
   68, -119, 127, 118, 126, -99, -89, 38,
   -53, -121, 67, 95, -44, -39, 82, 127,
   75, -127, 91, -12, -67, -91, 37, 4,
   40, -122, 65, -84, -8, 30, 46, -1,
   55, -55, 106, 12, -61, 47, -11, -102,
   54, 96, 18, -4, 75, -93, 76, 73,
   119, -24, 108, -9, 124, -127, 116, -43,
   110, 48, 15, -32, 33, -95, 23, -9,
   78, 113, 123, 127, -104, 40, -29, -57,
   74, -114, 121, -41, -113, 127, 6, 123,
   83, 81, -39, -27, -30, -120, 58, 14,
   16, 2, 6, 13, -41, 120, -112, 11,
   121, 124, 58, -126, 77, 32, -124, -32,
   -13, 39, -92, 36, -33, -46, -13, 125,
   20, -127, 108, -109, -97, -57, 26, -108,
   82, 78, -127, -84, 32, 31, -96, -124,
   60, 96, -121, -107, -113, -14, 113, 15,
   69, -53, 11, 91, -44, -33, 56, -75,
   -127, -122, 114, -27, 34, 36, 120, 122,
   -70, -16, -35, -122, -119, 4, 127, -86,
   -18, -113, -74, 87, -83, -123, 65, -1,
   -14, -119, 32, -20, -122, 31, -18, 23,
   119, 120, 112, -107, 29, 24, -123, 22,
   67, 127, 106, -128, 79, 17, 73, -53,
   -27, 58, -10, -7, 127, -51, -119, 15,
   -74, -113, -45, -36, 44, -120, 105, -80,
   98, 103, -102, -22, -108, 7, -122, 70,
   89, -127, 58, -33, -8, 91, -1, -4,
   -62, 127, 65, 74, -124, -111, -67, 89,
   12, -122, -25, 45, 117, -73, 23, 51,
   15, 88, 25, 116, 77, 95, 121, -5,
   103, 80, 108, 127, 100, 8, -113, -112,
   119, -106, 127, -114, -82, 125, 81, -127,
   -121, 127, -124, -8, -126, 58, 127, -126,
   119, 25, 26, -68, -83, 77, 70, 51,
   -64, -30, 127, 127, -126, -124, 127, -128,
   -119, -1, 122, 112, 13, 94, 46, -22,
   80, -26, 102, -122, -35, 37, -11, -108,
   -128, -95, -111, 125, -123, -79, 116, 8,
   90, 97, 26, -34, 109, 120, 61, 69,
   -5, 4, 119, 11, -61, 91, -3, 38,
   19, 127, -87, 125, 125, 33, 127, 46,
   39, 4, 36, 121, 127, -124, -27, -25,
   -79, 39, 105, -71, 30, -14, 78, -123,
   119, 80, 106, 125, -59, 125, -106, 24,
   30, -68, -116, -56, -78, -13, 103, 10,
   120, -29, 82, 119, -107, -32, 17, -41,
   123, -126, 54, 121, 54, 127, 10, 119,
   126, -120, 40, 115, 121, 85, -13, -11,
   103, 33, 60, 72, -21, 50, -66, 127,
   -69, 33, -118, -128, 29, -12, 123, 125,
   45, 127, -121, -74, -72, 80, -82, -55,
   120, 0, -65, -39, -124, 63, 126, -20,
   124, -21, 109, 127, -119, -125, 98, -125,
   -36, -94, 58, -34, -123, 108, -24, -61,
   42, -10, -63, -14, -76, -3, 22, -109,
   -1, -126, 58, 119, 9, -83, 124, 75,
   -17, -33, 58, 40, 114, -126, -31, 120,
   64, 20, -21, -37, -33, -19, -51, 42,
   1, 127, 39, 62, 125, -86, 62, 22,
   -12, -22, 2, -48, -28, -117, -60, -3,
   -60, 101, -29, 25, 83, 41, 75, -83,
   65, -88, 10, 104, 22, 93, -11, -86,
   -67, 98, -18, 44, 126, -100, -123, 49,
   126, -80, -44, -39, -14, 108, -122, -126,
   84, 102, 77, 112, -61, 125, 121, 35,
   102, -124, -9, 119, -119, 45, 19, 114,
   127, 61, -7, -57, -103, -104, 88, -30,
   -125, 123, 123, -121, 125, -5, 127, -49,
   28, 127, -69, 87, 5, 73, 127, 126,
   -12, -9, 46, -4, -122, 42, -54, 18,
   -17, 85, 39, 127, -117, -127, 0, -91,
   24, -6, -103, -39, -126, 127, -7, -19,
   95, 79, -36, 118, 95, -65, -89, 117,
   76, -47, -124, -53, 5, -53, -15, 71,
   124, -56, 35, 48, -54, 104, -76, 43,
   65, -121, -70, -48, 40, 18, -128, -8,
   42, 124, 33, -5, 102, -124, -128, 120,
   -128, 51, -99, -88, -128, -121, -70, 92,
   78, 112, 110, 122, 117, -107, 97, 111,
   65, -52, -23, -116, -5, -113, 11, -38,
   -37, 127, 119, 23, 124, -43, 79, 124,
   125, -122, 67, -104, -127, -53, -24, -112,
   120, 92, 69, -93, -6, -118, 110, 111,
   -128, 15, -46, -118, -121, -35, 107, 115,
   116, 67, 117, -30, -96, 126, -20, 127,
   -127, 108, 22, 123, -46, 63, 112, 121,
   8, 124, -125, -90, 14, 4, -5, 127,
   -119, 99, -63, 1, -107, -103, -86, -28,
   42, 103, 67, 32, -48, -95, 78, -77,
   -91, -46, -128, -84, 14, 125, 8, -73,
   -124, 11, 66, 111, -125, -4, -37, -125,
   -83, -29, -47, 71, 122, -42, 34, -31,
   103, 103, 21, 22, -103, -102, -83, -120,
   127, -15, -80, 125, -92, -34, -123, 21,
   80, -71, 111, -65, 119, -119, -109, 109,
   -26, -100, 10, 16, -127, -79, -121, 4,
   70, 19, 19, 39, -35, -25, 33, -118,
   1, 113, 93, -63, 52, 30, -22, 39,
   117, -7, 48, 50, 93, 9, -8, 45,
   36, -125, -8, -121, 39, -76, -92, -19,
   95, 101, 19, 59, -72, -106, 82, 121,
   -74, -123, -66, 121, -24, -69, 116, -28,
   6, -17, -69, -38, -90, 76, 33, -127,
   -67, 127, 31, 122, -113, 106, 123, -120,
   83, 117, -41, 83, -48, 29, 123, 42,
   -5, -84, -103, 106, -116, -9, -124, 117,
   17, 120, -121, -15, 73, -91, 120, -127,
   -70, 126, -128, 99, 127, 117, 124, -13,
   -118, -27, -82, -52, -31, 39, -104, -125,
   102, 14, -120, -94, 60, -39, -58, 9,
   51, 120, -111, -103, 126, 54, -112, -124,
   126, -10, 108, -39, 54, 51, -116, 61,
   126, -72, 69, -60, 125, -17, 4, 46,
   43, 127, 26, -51, 9, -104, 125, 37,
   95, 45, -67, -65, 62, 122, -66, -22,
   -89, -28, -99, -117, -81, -31, -51, 127,
   88, -121, 8, 62, -4, -45, 16, -68,
   9, -3, -73, -71, 29, -42, 69, -46,
   115, 123, -14, -118, 51, -3, 79, -91,
   -74, 91, -7, -119, 127, -95, -30, -49,
   62, -16, 62, 69, 58, 72, 5, 40,
   -121, -66, -4, 117, -121, 101, 53, 97,
   -118, -111, -127, 115, 122, 40, -3, -44,
   -5, -13, 5, 121, 49, 40, -124, -59,
   126, 6, -30, -98, -116, -2, 65, 29,
   -126, -121, -123, 15, 127, 119, -120, -51,
   -71, 127, 7, 1, -112, 33, 106, -20,
   -114, 59, -105, -81, -11, 28, 96, 4,
   -92, 27, 32, -125, -60, -107, 69, -106,
   23, 100, -53, -105, 13, -68, -126, 109,
   22, -127, 27, -127, 26, -127, -122, 127,
   -88, 66, 2, -105, -3, -113, -126, -40,
   74, 44, -9, 107, 41, -74, 77, -74,
   77, 127, 106, 53, 108, -71, -105, 122,
   99, -114, -123, 24, -127, -62, -20, 125,
   -12, 38, -43, -108, -33, -125, 103, -9,
   -67, 127, -3, -113, -128, 71, 120, 57,
   -127, -117, -122, 127, 124, 15, -54, 122,
   -24, -24, -58, -25, 50, 76, -56, -119,
   64, -88, -36, 125, 8, -117, 126, -60,
   -116, -127, 105, 69, 10, -127, -112, -31,
   -89, -58, 71, 31, -62, -2, -127, 8,
   -74, 124, -84, -87, -119, -103, 41, -128,
   -66, 127, -93, 55, 127, 19, 127, -97,
   -22, -54, -124, -78, 32, 70, 26, -1,
   124, 101, -127, -125, -82, 80, 98, 1,
   -40, 30, -66, 33, -15, 85, 125, 74,
   75, -73, 11, 126, 127, -34, -44, -47,
   117, -124, 118, -126, -68, -126, -111, 116,
   27, 92, 101, 45, 15, -113, 44, 47,
   122, -128, 45, -81, -90, 116, -117, 127,
   10, -7, -2, 2, 79, 46, -70, 72,
   35, -35, -125, -44, 34, -83, 9, -26,
   92, -121, -73, -105, -116, -6, 113, 43,
   47, -86, -1, -21, 78, -120, -31, 124,
   118, 127, -78, -113, 79, -47, 124, 120,
   -79, -31, 66, -4, -117, 125, 65, 127,
   14, -69, 84, 126, 89, 82, 86, 114,
   -65, 15, -68, 57, -10, 123, -110, -108,
   -113, 93, 86, 83, -26, -118, -86, -87,
   -41, -126, -14, -127, 127, 55, 126, -85,
   -87, -62, -126, 59, 127, 89, -72, -123,
   -44, -63, 5, -34, 107, 37, 127, -102,
   -50, 39, -126, -85, 118, 122, 82, -125,
   -124, 106, -128, 52, 26, -128, 40, 11,
   105, 91, 23, -4, 88, 14, -44, -5,
   111, -122, -27, -125, -81, -69, -25, 87,
   23, 125, -64, -31, 50, -120, -124, -123,
   -109, 118, 32, 103, -6, -54, -76, 76,
   -97, -3, 126, -47, 122, -22, -52, -125,
   -6, -75, -79, -38, 79, -49, 77, -104,
   -77, -35, -104, -128, -81, 36, 124, -59,
   -36, 74, -6, 39, -60, -31, 81, 123,
   -84, -123, -10, 124, -69, -53, -125, -126,
   5, -20, 28, -68, 33, 118, -62, -122,
   78, -63, -3, 126, 22, 28, 127, 100,
   111, 14, -28, -77, 89, 124, 27, 56,
   -118, 126, 123, -35, -112, -7, 38, -122,
   -61, -70, 124, -64, 127, -22, 84, -57,
   -24, 17, -76, 24, 44, 115, 107, 118,
   -39, 89, 35, 126, 121, 23, 50, -25,
   116, 63, -107, -122, 67, 114, 126, 108,
   -27, 38, -60, -44, -127, 7, -88, -46,
   52, 119, -96, -84, 93, 43, -94, 39,
   44, -98, 84, -69, -33, -116, -122, 81,
   -22, 63, 104, -62, 126, -127, 78, -117,
   109, 111, 108, -40, -52, 45, -118, -22,
   -50, -125, 7, -51, 125, -33, -106, 17,
   119, -122, -98, -18, 3, 16, 5, 101,
   8, 50, -1, 102, -108, 85, 65, 95,
   4, 116, 2, -67, 21, -47, 50, -67,
   -31, 58, 28, -23, -32, -13, 59, -23,
   -80, -21, -13, -45, -91, -2, -24, -123,
   30, -92, 51, 127, -73, -10, 118, 127,
   -12, -123, -57, -116, 46, 113, -128, -118,
   33, -32, 87, -110, 121, -102, 125, -124,
   -60, -50, 20, -110, -56, 0, 61, -107,
   -75, -126, -46, 118, -14, 58, -125, 8,
   13, 31, 73, -115, -120, 47, 122, -85,
   -17, 31, 6, -65, 70, 106, 123, -108,
   40, -71, -20, -89, -74, -88, -32, -12,
   24, -45, 73, 127, -39, -43, 110, 36,
   76, -1, 113, 83, 95, 15, 53, 8,
   -9, -126, -33, -102, -51, 69, -128, -14,
   -98, 15, 119, -79, -15, -57, 126, -55,
   -82, -95, 37, 99, 73, 121, -1, -40,
   120, -127, -24, -22, -15, 22, -24, 28,
   -117, -3, -26, 18, -54, 122, 73, 127,
   116, -114, -40, -123, -66, 9, 4, 35,
   78, 57, 52, 51, -2, 85, -10, -9,
   -20, -22, -69, 106, -11, 36, 19, 48,
   127, 7, 70, -121, 16, -19, 114, -17,
   -117, -126, -3, -60, 26, 72, -123, -126,
   33, 26, -128, -118, -84, -86, 121, -84,
   80, -87, -56, -106, -79, -127, -3, -44,
   7, 17, 36, 103, -1, -31, 127, -106,
   -20, -78, -45, -91, 120, 77, 114, -122,
   -48, 16, -102, 6, 56, 26, 127, 105,
   -103, -117, 31, -124, 1, 19, 31, -13,
   -82, -118, 123, 88, -24, 26, 107, -98,
   -46, -13, 24, -2, -6, 81, -25, 55,
   10, -38, -75, -60, -73, -52, 87, -41,
   -88, -127, -123, -113, -25, -120, -67, 40,
   -58, 29, -87, 117, 88, 40, -50, -117,
   124, -95, -12, -25, 100, -28, 0, 11,
   13, 62, -30, 26, -74, 127, 78, 127,
   -103, -128, 3, 31, 112, -35, -32, 121,
   126, 69, -2, 4, 86, 123, 100, -127,
   -83, -11, -34, 75, -75, 52, 9, 118,
   127, 5, -12, -93, -108, 17, -9, -21,
   -62, -101, -10, 122, -24, 39, -100, -121,
   -118, -58, 0, -55, 97, 120, 120, 26,
   -22, -75, -22, 57, -89, 107, 117, -32,
   75, -100, 49, 17, -20, 96, -64, 72,
   28, 125, 38, -127, -69, 108, 33, -100,
   36, 39, 3, 82, -50, -1, 127, -86,
   74, 44, -64, -124, -83, 13, 18, -39,
   40, -20, 92, -70, -16, -15, -17, -61,
   91, 51, 114, 1, -21, -29, 123, 20,
   -20, 5, -19, 7, -1, 86, 121, 12,
   77, 23, 17, -83, 16, -34, 28, -2,
   -76, -27, -52, -33, 64, -83, 122, -2,
   64, -128, -9, 122, 127, -42, -37, 97,
   2, 118, 38, -32, 49, 46, 60, 52,
   -128, 0, 72, -2, 114, -109, -8, -37,
   48, 65, -21, 127, 66, -48, -128, 123,
   -26, 39, 8, 63, 2, -122, 35, 99,
   56, -89, -1, -37, 3, 2, -126, 52,
   4, 17, 46, -104, -126, -105, -46, -125,
   -2, 27, 35, 45, -119, 42, 115, -18,
   34, 56, 104, 2, 61, 52, 124, -34,
   -73, 110, 19, 9, -15, -74, -6, -56,
   86, -96, 17, -127, 28, -126, 3, 29,
   -127, 76, 37, 125, 7, -7, 127, 52,
   94, 23, 123, -115, 120, 41, 91, -88,
   87, -50, -49, 88, 51, 1, -7, -20,
   77, -39, -92, -47, -49, 33, -67, -33,
   25, 29, 44, 14, -37, 118, -126, -63,
   125, -6, 19, -124, -9, 104, -121, -94,
   47, -101, -5, 90, 86, 64, -126, 29,
   126, -128, 59, -105, 63, 1, 34, 62,
   -43, 101, -109, -112, -22, 39, 86, 48,
   -84, -126, -110, -43, -51, 68, 7, -99,
   -81, 109, -43, -127, 2, 118, 123, -127,
   -31, 21, 55, 36, 113, 19, -48, 123,
   60, -1, -123, -108, 20, 32, -128, -13,
   -11, -123, 72, -115, 126, 47, 61, -126,
   89, 118, -20, 14, -127, -19, 102, 20,
   11, 98, -71, -87, 24, -3, 127, 13,
   92, -127, 83, -69, 9, -118, -38, -53,
   19, 14, 27, -125, -9, 110, 115, 7,
   126, 112, -124, 119, -43, -8, 127, 29,
   -9, -29, -32, -110, 64, -108, 0, -92,
   127, -12, -19, 31, -18, 2, 79, -52,
   32, 79, -79, -83, 27, -35, -89, -124,
   -125, 67, 23, 82, -37, -125, 127, -92,
   -1, 5, 14, -117, 52, 42, 57, 94,
   -87, -123, -60, -11, -7, -47, -122, -20,
   -8, 123, -118, -13, -128, -95, -127, 74,
   -104, -69, -125, 35, -30, 87, -64, -11,
   124, -69, -93, 125, -119, 123, 106, -121,
   -22, -68, 81, 124, -22, -96, -126, 69,
   35, 29, -125, -85, 106, -59, -60, -61,
   -121, 88, 87, -67, -112, -65, 127, 73,
   -47, -122, -42, 127, 113, -121, 23, 26,
   -12, 109, 76, 19, -21, -30, -11, -31,
   12, -66, -17, 118, -83, -109, -128, -53,
   -49, -128, 96, -2, 76, 102, -6, -19,
   -126, 30, 61, -96, 51, 54, -8, 75,
   117, 111, 87, -126, 104, -123, -42, -82,
   -112, 58, 39, 127, -123, 68, -107, -128,
   13, -81, 76, -108, 28, -49, -52, -67,
   16, -19, -23, 31, -127, 84, -15, 21,
   3, -70, -119, 26, 91, -122, -122, 89,
   -117, 24, -78, 41, -17, -65, -114, -49,
   7, -113, 78, 48, 117, 53, -110, -28,
   -49, -60, -128, -44, -67, 125, 16, -26,
   -119, 72, -41, -83, 120, 51, 114, -56,
   127, -20, -15, -45, 61, -62, 119, -43,
   118, -126, -32, -38, -112, -108, 121, 15,
   -84, -90, 87, 83, 43, -41, 85, -128,
   -3, 103, -122, 124, 18, -52, -58, -128,
   109, -122, -49, -21, -110, 105, 2, -19,
   -4, 111, -16, 74, -73, -27, -126, -44,
   125, -126, -1, 49, -59, -66, -53, 116,
   123, 126, -105, 119, 127, 127, 40, 43,
   -44, -63, 18, -111, 124, -91, 18, 10,
   -83, 4, -17, 1, 78, 121, -79, 9,
   -128, 5, 112, 3, 13, -104, 55, -54,
   3, 58, 27, 41, -45, -46, -26, -38,
   -59, 122, -41, -34, 63, -40, 8, -4,
   -12, 4, -75, 2, 83, -25, 25, 109,
   46, 30, -9, 75, -45, -57, -58, -118,
   74, 89, -124, -6, 25, -82, -107, -58,
   -30, 117, 116, -19, 123, -30, -23, 51,
   -11, -13, 8, 50, -121, -11, 46, -78,
   120, -127, -6, 33, 53, 52, 126, -72,
   109, -113, -118, -16, -82, -71, 2, -43,
   -122, 55, -33, 49, -26, -118, 24, 113,
   -24, 28, 77, -118, 12, 90, 95, 25,
   127, 29, 101, 116, -9, -87, -78, 120,
   120, 114, -122, 79, -94, -89, 61, -39,
   5, -127, -14, 29, -127, -74, 76, 9,
   -94, 73, -125, -62, -28, 47, 86, -83,
   -124, -68, -11, -68, -31, 98, -79, -123,
   122, 62, -103, -16, -48, 49, -79, -106,
   65, 118, 56, 73, 53, -11, -112, -97,
   -73, -39, 5, -69, 111, -45, 13, -3,
   65, 4, -4, -88, 121, 11, 45, -19,
   87, 84, -67, -114, 73, -83, -19, 30,
   35, -79, 55, 77, -81, 63, -71, 2,
   -83, 44, 127, 61, -75, 9, -125, 65,
   -128, -23, -110, 43, -11, -19, -36, -102,
   -77, 122, 63, 95, 105, -18, 11, 36,
   125, -71, -59, -8, 16, 95, -61, -102,
   -125, -69, 29, -16, -52, -27, 55, 102,
   -24, -105, 52, -10, -123, -39, 81, -128,
   -11, 91, 40, 11, 123, 27, 26, -28,
   -97, -122, -121, 27, 49, 24, 112, -34,
   -71, 125, 115, 75, 73, -65, 68, 53,
   -99, -37, -86, 59, 73, -115, -128, 37,
   -66, -66, -76, 115, -128, 20, -56, 3,
   36, 91, -85, -121, 120, 24, -17, 108,
   38, -82, 87, -39, 92, -10, 58, -20,
   -30, 46, 66, -10, -95, -16, -57, -108,
   68, -14, -57, -113, -55, -7, -91, 53,
   112, 22, 24, 26, 102, -29, 76, 41,
   13, 27, 17, 86, -33, 126, 103, 50,
   -11, -49, -118, -103, 26, 116, 47, -56,
   -88, -40, -24, -56, -2, 87, 105, -99,
   104, -54, 14, 25, 118, -125, 11, 28,
   -76, -70, -32, -71, 97, 15, -22, -35,
   -100, -21, 24, -25, 17, -31, 80, -65,
   50, 37, 115, 84, 53, 5, -33, -33,
   -99, 25, -11, 20, 86, -96, 44, 86,
   126, -111, 66, 21, 0, 63, -123, 93,
   -15, 36, 127, -76, -123, -72, -111, -127,
   -62, 1, -85, 1, -32, 61, 50, 57,
   27, 87, -34, -30, -2, 28, 111, -59,
   -18, 16, 3, 82, 4, -128, 126, -76,
   -21, -122, -21, -93, -28, 42, -52, 1,
   -16, 37, 67, 17, -91, 29, 121, 6,
   118, -43, -54, -125, 87, 4, -25, 50,
   124, 57, 43, 22, -51, 21, -49, 21,
   12, 71, 122, 45, -66, -58, -54, 44,
   41, 52, -6, 84, -56, 127, -122, 57,
   75, -42, 127, -11, -42, 31, -124, 54,
   21, 5, -23, 108, 123, -64, 23, 45,
   100, -28, -86, -50, -32, -27, 116, 99,
   58, 35, -64, 71, 32, -51, 63, 0,
   46, -89, -69, 40, -12, 27, 71, -24,
   -76, 91, -40, -88, 119, 47, 126, -122,
   -81, -81, 7, 10, 50, 113, 2, 58,
   26, -55, -98, -59, -50, -59, -110, -125,
   16, -59, -41, -16, 103, 48, 83, -26,
   54, -119, 11, -36, 126, -16, 35, 38,
   -96, 118, 0, -43, -30, -26, 21, -28,
   32, -75, -17, 29, -7, -127, -16, -23,
   3, 18, 75, -42, 97, 117, 26, 126,
   118, 62, -126, 17, -112, -70, 119, -47,
   60, -42, -49, -33, 69, -43, 79, 7,
   80, 116, -45, 113, -45, -74, 72, 21,
   63, 19, -116, -15, -110, -67, -121, -2,
   -42, 101, 79, -36, 15, -50, 81, 127,
   -51, 120, -47, 38, 22, -75, 126, -39,
   -38, -123, -13, 31, 16, 62, -119, -76,
   35, -7, 17, -11, -122, -6, 65, 93,
   36, 104, -100, 73, -9, 95, 92, -80,
   75, 34, -65, 18, -112, 20, 0, -27,
   -2, -127, 54, 25, -45, -61, -126, -53,
   -15, -29, -7, -1, -41, -126, 21, -124,
   -75, 86, -43, 62, 75, 55, 122, 54,
   -8, -124, -109, 108, 71, 20, -26, 28,
   -29, 11, 125, -51, 90, -11, 29, 67,
   -124, -80, 51, 8, 72, 46, -120, -75,
   -44, -52, 34, 2, -19, 127, 113, -34,
   -97, 85, -32, -58, -5, 35, 125, 80,
   -17, 40, -34, -30, -50, 6, -63, -40,
   102, -12, -17, -2, -80, 120, 66, 121,
   -40, 87, -13, -38, 36, -36, 1, -6,
   72, 61, -1, 82, -102, -37, -32, 4,
   -6, 66, -73, 126, -6, -4, -42, -27,
   24, 118, 5, 10, -32, -20, -36, -23,
   -74, 5, 85, 67, -45, -115, -101, 115,
   85, -75, -61, 29, -17, -89, 104, 91,
   -46, 102, -68, 56, -112, -67, -75, -114,
   45, 111, -35, -51, -125, -87, -20, 59,
   -120, -15, -22, 1, -96, -95, 15, 119,
   -14, -111, 18, -6, -42, -88, 42, -2,
   22, 112, 89, 97, 40, 98, 117, -123,
   -4, -27, 61, -96, -83, 10, -1, -1,
   31, 51, 1, 9, -93, 47, -38, 88,
   -75, -79, -28, 13, -16, -31, -94, 36,
   63, 120, -72, -127, 4, 78, 21, 34,
   -30, 43, 23, -123, -124, 17, -71, 38,
   -103, 3, -15, 17, 124, 84, -88, -21,
   73, 37, 50, 44, 107, 34, 81, 33,
   -55, 2, 8, 33, -15, 10, -119, 33,
   10, -10, 44, 74, -70, -67, 90, 7,
   -67, 28, -123, 33, -27, 63, 2, 123,
   87, 5, -76, 53, -128, -55, 120, -115,
   111, -43, 16, 14, 98, -2, -24, 46,
   -4, -123, 34, -50, 113, 27, 38, 117,
   106, 46, 10, 2, -2, 72, -123, 3,
   14, 28, 3, -124, -51, -40, 73, -117,
   32, 86, 22, -32, -76, -119, 83, -96,
   -94, -51, -51, -87, 53, 94, -87, -2,
   -22, 36, -127, -34, 77, 127, 121, 57,
   39, -71, 98, 13, 13, -43, 3, -34,
   71, 124, 117, 48, 74, 10, 20, -2,
   -105, -71, 10, 62, -74, 4, 74, -17,
   -40, -50, -116, 29, 27, 47, 68, 7,
   -60, 67, -58, -119, 53, -25, -79, -102,
   70, 27, 5, -14, -74, 51, -12, -13,
   1, 17, -22, -87, -12, 0, -50, 19,
   -114, -33, -56, -99, 45, -27, -6, 47,
   21, 21, -91, 35, 87, -32, 8, -126,
   -2, -51, -122, 93, -63, -118, 4, -36,
   40, -46, 56, -79, 126, 30, -4, 81,
   11, 12, 106, -1, -89, -90, -45, 46,
   -118, 12, -81, 75, -99, 20, -120, 78,
   5, 93, 79, 9, 101, -47, -78, -104,
   -62, 123, -13, 108, 101, -55, 27, -4,
   -127, -35, 63, 79, -98, 36, 15, 62,
   -9, -23, 45, -17, -37, -5, 49, -120,
   -89, -10, 123, -38, 125, -103, 119, -104,
   11, 8, 72, 39, -39, 110, -20, 19,
   -38, 91, -104, 103, -47, -24, 25, -14,
   -59, -29, -23, 82, -8, 7, -106, -11,
   5, -15, -30, 87, 27, 102, -95, 52,
   66, -48, -124, -58, -126, -30, 127, 63,
   -121, -16, -42, -125, 77, -4, -107, -19,
   -29, 22, 5, -56, 29, -88, 10, 26,
   -127, 36, -17, 67, -26, 93, -16, -31,
   7, -30, -17, -24, -56, 33, 10, -125,
   120, 119, -128, -77, -68, -9, -33, -60,
   7, 1, -88, 40, -6, -67, 43, 14,
   -128, -26, 39, -26, -80, -120, 7, 125,
   69, -86, 47, 5, 119, 76, 38, 52,
   6, 62, -31, 15, 71, -25, -61, -75,
   88, 109, -4, -93, -126, 56, -99, 103,
   16, 93, 93, -11, -127, 106, 5, -126,
   19, 56, 68, 59, -41, 9, 17, 29,
   0, 112, -74, -51, -127, -119, -110, -122,
   -9, -64, -86, -50, 61, 40, 33, -105,
   127, -6, -28, -9, 26, -20, -81, 50,
   -111, -118, -25, -49, -109, -35, -96, 127,
   -51, -120, 127, 22, -125, 43, 29, 127,
   1, 66, 19, 4, 15, 86, 42, -71,
   -26, 125, 80, 48, -100, 125, -13, 126,
   33, -14, 33, -16, -68, -33, -4, 75,
   -127, 20, -12, -10, -3, 25, -43, -30,
   14, 12, -33, 44, 51, 46, 63, -116,
   76, 93, -128, -35, 13, 9, -39, -97,
   33, 55, -39, 24, -33, 52, 84, -65,
   120, 11, 103, -32, 101, 127, 23, 3,
   20, 31, 53, 39, -38, 41, -19, 94,
   -41, 67, -33, 15, 9, 24, -77, -26,
   93, -71, -8, 46, -26, 51, -21, -127,
   42, -12, 126, 48, -121, 48, 39, -123,
   -5, -4, 45, 60, -122, -55, 13, -43,
   -9, 100, -7, -122, 32, -63, -71, -85,
   58, -59, -60, -70, 93, 68, 85, -77,
   126, 43, -5, 63, -103, -69, -49, 59,
   -51, -120, -53, -75, -98, -21, -20, 127,
   -43, -35, 127, 27, 57, 83, -8, 127,
   -50, 119, 126, -65, -14, -95, -22, 33,
   -17, -39, -39, 12, 122, -118, 17, -26,
   -94, 47, -30, 111, 26, 14, -79, 105,
   127, 31, -51, -96, -75, 21, 67, 25,
   22, 79, -98, 41, 110, 59, 127, 127,
   -18, 3, 97, 124, 36, -8, 9, -99,
   23, 1, 66, 39, -44, 116, 123, -5,
   124, 84, -6, -55, -50, 121, 47, -117,
   -80, 85, -113, 22, -126, 101, -81, 119,
   6, 39, 1, 81, -30, -50, -120, -9,
   42, -126, 1, 23, 111, -33, 14, -128,
   -4, -57, 26, -45, 126, -115, 8, 14,
   84, -11, 19, -3, -123, -127, 80, -37,
   -100, 13, -57, -121, 122, 45, -59, 36,
   50, 3, 39, -15, 7, -12, -15, 96,
   -128, -7, 47, -47, -19, 71, 31, 26,
   63, -67, -112, -36, 45, 14, 65, -103,
   4, 59, -127, 37, 127, -47, -35, 44,
   9, 115, 120, -127, 96, -125, -33, 114,
   66, -120, -1, 15, -128, -126, 28, -125,
   16, 8, 56, 83, 109, 116, -59, 111,
   40, -4, -60, -15, -10, 101, 41, -100,
   -3, -39, 91, 34, 26, -78, -4, 126,
   -18, -11, 112, -108, 40, 11, 44, -50,
   62, -67, 37, 80, 22, 11, 101, 21,
   -115, -69, -32, 59, -125, -126, 107, 120,
   -24, 119, -127, -48, -3, 6, -70, 65,
   -114, -3, -5, 120, -23, -80, 72, 68,
   63, 48, -7, -112, -109, 5, -34, 116,
   -73, 126, -15, -87, 22, -7, -39, -12,
   74, 14, 4, -113, 44, 33, 82, 32,
   -113, -107, -20, 102, -111, 1, -122, 63,
   -115, -45, -61, -53, -85, -16, -9, -23,
   -24, -5, -38, -76, 37, 59, 4, 79,
   23, 70, -113, 36, -42, -41, -68, -59,
   9, -100, -105, 117, 127, -127, 45, -128,
   9, 26, -115, -80, 99, 72, -74, 17,
   8, 8, 60, 31, -128, 126, -122, 107,
   7, -28, 28, -109, -32, -44, -81, 16,
   -128, 13, -126, -39, 18, -69, -84, -22,
   -113, -31, 48, 49, 0, -65, -109, 82,
   57, -95, 12, 13, -43, 19, 36, 95,
   -113, 40, 95, 116, -11, 61, 55, -61,
   127, 67, 127, -46, 126, 31, 116, -30,
   -67, 113, 90, -23, 54, -55, 13, -45,
   127, 63, -22, 120, -13, -22, 58, 91,
   52, 45, 13, 83, 40, 87, -25, 125,
   91, 74, 50, -124, 86, 66, 5, 127,
   -19, 116, 6, -12, 4, 42, 92, -40,
   -100, -21, 123, 27, -45, 4, -97, -22,
   -113, -4, -27, 18, 49, 78, 107, 6,
   126, 127, 8, -47, -124, -110, -8, 17,
   67, 51, 5, 13, -11, -76, 15, -124,
   37, 58, -71, 25, -112, 45, 35, -128,
   44, 127, 34, 39, 15, -17, 49, -3,
   -24, -27, -49, 12, 127, 111, -78, -63,
   30, 29, 29, -25, 73, -66, 94, 17,
   6, 75, -82, 118, -96, 55, -47, -53,
   16, 21, 115, 15, -10, 64, 7, 42,
   73, -33, -38, 6, -88, 94, 31, 51,
   -99, -27, 0, 123, -124, 81, 51, -54,
   -112, 115, 42, -124, -60, 99, 23, 101,
   62, -52, 20, 6, -43, 4, 9, 0,
   44, 51, 8, -59, -11, 110, -6, 100,
   29, 127, 0, 92, 127, 13, -38, 65,
   23, 76, -1, -127, -69, -14, 59, -33,
   -57, 11, 0, 83, -38, 52, 110, -36,
   -35, -112, 99, -16, -113, 125, -50, -114,
   63, -62, -6, 39, -9, 110, 0, -100,
   -29, 123, 121, 7, 82, -51, -32, 51,
   -34, 84, -76, -82, 90, -105, 111, 24,
   17, -16, -41, -116, -123, 1, 48, -127,
   55, 66, -16, -84, 74, -37, -91, 27,
   83, 47, 49, 92, -80, 32, 72, 65,
   29, 16, -7, 8, -106, -3, 15, -69,
   -48, -27, 45, 8, -51, 58, 35, -10,
   -15, 0, 15, 4, 50, -64, 6, -16,
   -35, 59, -2, 14, 1, 7, 4, -74,
   7, 124, 38, -46, 70, 0, -73, -35,
   -5, -4, 0, 54, 7, -4, 10, 93,
   -8, 42, -93, -38, -46, 1, 29, 50,
   78, 75, 63, -73, 14, -26, 6, 58,
   -81, 7, -3, 86, 69, 5, -6, 14,
   48, -41, 124, 0, 43, 65, 24, 54,
   -79, 32, 46, 17, -13, -57, -35, -10,
   -19, 40, -78, -47, -4, 30, -86, -61,
   0, 15, -15, 13, 127, 5, -22, 61,
   68, -33, 8, -16, -34, 10, 33, 5,
   -48, 14, 49, 126, -27, 20, 96, 26,
   8, 24, -4, 57, 54, 45, -11, -126,
   126, -13, -51, -32, 4, -65, 74, -77,
   -35, -3, -7, -69, 10, 13, 0, -49,
   -123, -56, -9, -61, 6, 18, -1, 12,
   -67, 23, 5, -30, 7, 37, -34, 12,
   -40, 3, -25, 32, -60, -66, 97, -27,
   32, 20, -95, -3, 8, -76, -15, 61,
   8, 19, 9, 18, -20, -13, 105, -13,
   47, -11, 19, 10, -47, 1, 125, 77,
   90, 34, -76, 49, 64, -28, -67, 2,
   -32, -24, -1, -25, -120, 1, -68, 55,
   81, -85, -11, -12, -29, -110, 2, -44,
   41, -12, -16, 7, -1, -118, 76, -76,
   -17, -43, -8, 101, 86, -123, 70, 45,
   -13, -39, 114, -72, 101, -5, -8, -5,
   -54, -49, -92, -26, -117, 19, 14, -116,
   37, 8, 15, -15, 30, -22, -16, 23,
   -83, 5, 57, 14, -19, -9, 51, -1,
   -20, -26, -3, -8, 3, -14, -51, 11,
   -56, 30, -5, -108, -10, -115, -89, -38,
   -70, -4, -15, -30, 35, 48, -119, -63
};

static const rnn_weight noise_gru_recurrent_weights[6912] = {
   20, -47, 122, 31, 41, -36, 18, -22,
   0, 87, -28, -26, -68, 8, -54, 104,
   112, 19, 31, -118, -31, -31, 9, 17,
   11, 5, -53, -24, -17, 24, -35, 16,
   53, -26, 6, 24, 48, 11, 17, -34,
   17, -15, -51, -32, -44, -11, 10, 63,
   25, -92, -52, -30, 26, -57, 44, -18,
   20, 49, -40, 74, 96, -43, 99, 90,
   -15, 40, 11, -119, -125, 42, 58, -127,
   -27, 9, -64, -64, -87, -31, -53, -39,
   -1, -11, 53, -6, -124, -6, -81, -67,
   46, 23, 11, -124, -48, 100, -62, -6,
   -17, -124, 10, 81, 39, 35, -125, -52,
   4, 41, -43, 12, -48, 13, 27, 41,
   25, -20, 4, -71, -59, -30, 43, 46,
   22, 34, 50, -78, -117, -26, 67, 22,
   -27, -86, 48, -51, -52, 32, 48, 1,
   -11, 63, -38, 62, -13, 17, 32, -6,
   11, -15, -65, -45, 69, -9, -33, -13,
   -114, -30, 55, -29, -33, 3, -59, 44,
   72, -52, 22, 65, 14, 5, -20, 19,
   12, 81, -2, 100, -6, 125, -41, 124,
   -2, 24, 107, 21, -38, 66, 46, -20,
   -11, 8, 51, -59, 8, 50, -78, -26,
   98, -21, 120, -30, 34, -49, 72, -22,
   -74, 69, -86, -11, 23, -126, 10, 12,
   -35, -36, 20, 21, -24, 39, 44, -110,
   -54, 33, 1, 10, -83, 36, -37, 7,
   -57, 0, -73, -23, 15, -10, -14, 12,
   52, -80, -21, -40, 0, -47, 24, 8,
   58, -41, -48, 14, 27, -83, -11, 62,
   5, 101, 35, -75, 89, -101, 44, 50,
   -77, -115, 1, 50, 25, -113, -64, -6,
   -14, 30, -80, -91, -48, -126, -51, -93,
   -103, -1, -49, 73, 25, -39, 51, 70,
   -39, -53, 41, -60, -70, -72, -6, -19,
   63, 75, 120, 79, 1, -57, 8, -3,
   18, 5, -56, 31, -13, 73, 83, 77,
   4, -122, 122, -127, -17, 63, -119, -30,
   -74, -109, -106, 44, -12, 106, -15, -31,
   -19, 17, 87, 15, -79, 81, 32, 35,
   60, 127, 0, -53, -60, 30, -93, -31,
   -19, 36, -19, -21, -46, 44, 16, 88,
   -98, 61, 65, 25, 119, -70, 127, 52,
   12, -1, -6, -72, 15, 99, -117, 22,
   3, 99, -63, -54, -56, -1, -32, -2,
   -120, 53, 66, -8, 112, 43, 2, -57,
   -27, -92, 39, 100, 5, -20, -66, -7,
   33, -81, -127, -80, 27, -112, -76, -53,
   122, 12, 33, -88, -25, 47, -112, 10,
   -38, 117, 29, -125, -65, 30, 60, -124,
   -61, 14, 108, 7, -30, -50, -38, 44,
   16, -35, 39, -2, 125, 83, -1, -24,
   -27, 106, -76, 58, 122, 24, 15, -86,
   -101, -82, 121, 6, -4, 33, 0, -40,
   -80, 22, -24, -124, -39, 120, -53, -1,
   63, 12, 48, -54, 83, -109, 40, 7,
   26, -51, -74, 38, -12, 0, 33, -66,
   50, -118, -25, -109, 18, 59, 124, 50,
   10, -42, 12, 68, -85, -59, 46, 34,
   5, -1, -2, -41, 53, 3, -8, -62,
   -8, 33, -95, -24, 52, 30, -16, 98,
   -13, -54, -54, 39, -30, 9, -78, -13,
   -21, -39, -20, -21, 36, 24, 1, 63,
   28, -72, 63, -15, -127, -19, 16, 56,
   4, 22, -71, 9, -13, 18, -42, 5,
   -10, -14, -71, -37, -47, -48, -68, 64,
   56, 23, -90, 15, -67, -38, -1, 10,
   -34, -119, 55, -61, -25, 24, 29, -47,
   -53, -28, 32, 23, 51, 45, -17, 111,
   12, -16, -63, -25, -50, 31, -18, -45,
   2, -15, -79, -11, 78, -102, -46, 31,
   -47, 69, 8, 63, -123, 107, -74, -78,
   45, 55, 20, -64, 30, 95, 44, 6,
   13, 28, -37, -70, -21, -84, 16, 6,
   5, -53, 8, -9, -11, 24, 41, -39,
   -84, -40, 24, -126, -41, -3, 13, -84,
   59, -62, -43, 11, -15, 14, -46, -125,
   -72, -38, -48, 22, -38, 84, 39, -29,
   -97, 31, 8, -46, 22, -68, -60, 8,
   -47, -123, -18, -102, -43, 34, -79, 30,
   -74, -94, 64, -57, -1, 98, -9, 97,
   -119, 45, 19, -24, -26, -99, -55, 24,
   46, 7, -6, -126, -80, 15, 1, -20,
   -72, -68, -23, -79, -74, 65, 8, 26,
   118, 13, -82, -38, 20, -9, 104, 41,
   42, 126, -15, -54, -65, -97, 59, 50,
   12, 76, -47, 92, -126, -39, 2, 46,
   27, 101, -87, -7, -26, -25, -2, 22,
   12, 57, -99, -16, 54, 126, 80, -17,
   54, 21, -21, 83, -54, 62, -11, 35,
   -37, 80, -2, 20, 6, 39, -20, -74,
   33, -53, 56, -21, -48, 37, 37, 0,
   -40, 13, 44, 107, -47, -21, 19, -23,
   -116, 104, 72, -43, 59, 37, 53, 70,
   -59, 26, -14, 41, 13, 17, 32, 123,
   -73, 62, 101, -47, -60, 15, -44, 7,
   -114, -40, -39, -79, 84, 18, 114, 70,
   103, 55, -24, -8, -80, 71, -50, 55,
   54, 46, 25, -59, 15, 19, 122, -104,
   121, -5, 45, -22, 118, 88, -2, 123,
   -13, 21, -33, -70, -54, -86, -29, -85,
   -40, -38, -20, -71, 8, -97, -23, -48,
   -4, -9, 25, -122, -52, -119, -5, 3,
   39, -28, -113, -65, -44, 5, 13, -14,
   83, 9, 50, 27, -24, -13, -14, -37,
   106, -31, 58, -26, 37, 1, -78, -128,
   -12, -39, -127, 20, -53, 54, -61, 71,
   16, 41, 54, -92, 57, 88, 48, -51,
   -7, 18, 24, -12, 83, 29, 63, -20,
   -88, 11, -17, -79, -84, -51, 53, -2,
   -21, -64, -28, 98, -14, 7, 127, -122,
   -22, -25, 6, 4, 121, 124, 111, 38,
   -33, -17, -106, -2, -10, 12, -35, 67,
   -2, 8, -15, -17, 48, 66, -5, -10,
   -33, -2, -37, 73, -110, 124, -27, -14,
   -7, 46, 6, -14, -37, -32, -32, -33,
   39, 33, -21, -111, 1, 21, -126, -99,
   -81, 31, -32, 58, 32, -104, 23, 61,
   -48, 20, -5, -51, 57, -126, -10, 110,
   -6, -32, -35, 65, 42, -95, -74, -72,
   6, 45, -81, 34, -61, -128, 46, 22,
   5, -30, -59, 116, -95, -31, -14, 16,
   18, -39, 52, -36, -35, -1, -107, 59,
   34, -24, 35, 28, 52, -65, -49, -66,
   -1, 59, -87, 45, 42, 124, -47, -59,
   -68, -85, 52, -18, -119, 19, 25, -126,
   -118, -26, -9, 82, -111, 20, -72, -86,
   6, -36, 18, -45, 100, 3, -86, -17,
   125, -121, -50, 25, 37, 123, 20, 52,
   -118, 53, 19, -31, -86, 123, 63, -110,
   -12, -28, 64, -39, 75, 96, -95, 58,
   45, 43, 97, -71, -25, -38, -8, -33,
   -85, -56, -44, 41, 82, -77, 71, -35,
   29, -36, -16, 21, -84, -7, -37, -82,
   60, 21, 26, -39, -23, 87, -2, 46,
   -27, 45, -38, -25, -67, 45, -48, -3,
   11, -82, -15, -34, -35, 87, -94, -17,
   47, -33, 41, -17, -36, 30, 41, -18,
   81, 33, 25, -80, 65, -6, 65, -35,
   -18, -105, 33, 57, 5, -12, 25, 120,
   6, -69, 90, -41, 45, -59, -82, 80,
   41, -11, 6, 38, 105, 51, 58, -73,
   20, 19, -4, 40, -28, -124, 116, -33,
   -15, 23, 124, 68, 28, 6, -25, -29,
   18, 80, -35, -4, -25, 10, -118, -20,
   9, 94, -111, -76, 43, -19, 15, 97,
   -19, -21, 63, 92, 72, -67, -23, -66,
   -49, -14, 6, -47, 17, -101, 21, -29,
   89, -72, -86, 112, -92, 38, -71, 114,
   -53, 47, -102, 6, -59, 64, -16, -116,
   -22, 6, -43, 19, 9, 9, -37, -68,
   86, -6, -84, -40, 10, -14, 80, -10,
   -49, 76, 31, 47, 123, 90, -49, 35,
   9, 64, 71, -29, -40, -107, 60, -33,
   -23, 25, 63, -116, -16, -118, 82, -125,
   -7, 26, -70, 77, 37, 124, 29, 80,
   69, 88, -5, -56, -77, 68, -77, 61,
   20, -72, -27, -120, -58, -70, -10, -126,
   -49, -66, -44, 127, -28, 83, 63, 65,
   -90, -29, -121, -1, -30, 85, -41, -91,
   40, -43, 68, 85, 85, -75, -43, 122,
   -24, -103, -82, 20, -113, -22, -36, -72,
   29, -39, 28, -24, -16, 11, 27, 28,
   -1, -61, 15, -126, 1, -31, -43, -26,
   24, -27, -42, 28, -80, -34, 15, -44,
   -42, 31, 23, -40, 30, -2, -54, -6,
   -48, -114, 36, -71, 13, 57, -127, 94,
   1, -28, 116, -62, -3, -29, -23, -75,
   -110, 49, 42, 127, 19, -121, -92, 56,
   -58, -28, -41, -19, -5, 38, 106, 120,
   40, 2, 86, -58, -49, -20, 102, -56,
   -86, -7, 1, -85, 10, 34, -11, -63,
   -1, 85, -106, 31, -48, -64, 12, -14,
   -111, -82, -28, -11, -26, -52, -43, -33,
   -20, -57, -91, 27, -64, 54, -55, -32,
   27, 97, 11, 13, -8, -120, -35, 35,
   6, -117, 25, 104, 7, -1, -8, 0,
   31, -29, -10, -20, -33, -23, -1, -6,
   -107, 60, -62, 70, -28, -96, 48, 17,
   -103, -64, 30, 42, 18, 66, 0, -69,
   -16, 77, -21, -4, 35, 45, -70, 70,
   36, 27, 97, -27, 57, 23, -23, 91,
   118, -12, 24, 21, -54, 1, 40, -17,
   -109, 39, 33, -22, -44, 46, 20, -15,
   -42, 29, -10, -64, -16, 35, -95, -83,
   40, -34, -63, 54, -12, 2, 104, -5,
   -103, -79, -94, 126, -7, 18, -17, 116,
   -15, 76, -48, 19, -5, 76, 58, 53,
   1, 20, 22, -13, -63, 11, -15, -117,
   -39, 43, -21, -5, 18, 16, -7, -72,
   34, -103, 86, -76, -114, 26, 39, -4,
   3, 45, -37, -55, -34, 56, -113, 14,
   -56, 21, 83, -115, 52, -41, 71, -51,
   -125, -95, 11, 93, -48, 5, -41, -128,
   11, 22, -20, -103, 1, 17, -69, -28,
   -32, 25, 119, 52, -92, -92, -19, 57,
   77, -51, 59, -57, -8, -90, -17, -44,
   -94, -43, -90, 5, 18, -27, -72, 42,
   -18, -29, 32, -30, 19, -7, -27, -102,
   -82, -20, -7, -127, -26, 60, 1, -37,
   -124, -92, -47, -8, 8, -55, -25, -88,
   -18, 98, -5, -35, -44, 15, 121, -38,
   -13, 9, -88, -126, 68, -126, 62, -49,
   -44, -56, -71, 3, 65, -27, -46, -103,
   -78, 29, -65, -23, 100, 75, 47, 8,
   57, -43, -47, 69, 112, -85, 51, -56,
   36, -101, 13, -36, 73, 26, 31, -8,
   53, 52, -38, 29, 81, -26, 116, -18,
   35, -49, 2, -6, -4, 52, 94, 59,
   -120, 68, -59, 6, -3, -54, -22, 18,
   1, -126, -127, -34, 19, 105, -26, -16,
   113, -43, -31, -7, -60, -4, 72, 39,
   17, 38, 118, 31, 5, 19, -70, -14,
   -93, -8, -107, -56, -59, 56, -127, 41,
   -63, -30, -71, -27, -4, 13, -15, -66,
   -50, 33, 38, 34, -47, 2, -50, 71,
   -49, 18, -39, -18, 46, -3, 50, -18,
   -32, -67, -25, 58, -14, -7, 23, -3,
   -24, 7, 8, 118, -20, -55, -24, -30,
   -16, -9, 73, 63, -74, 42, 112, -35,
   -27, 38, 59, 13, 72, 2, 109, -11,
   -75, 30, 28, -20, -74, 16, 103, -83,
   -6, -115, -44, -11, -33, -120, 66, -58,
   22, -12, 15, -32, -26, 1, 30, 35,
   76, 62, -121, 9, -32, 12, 75, -77,
   80, 25, -18, -78, -123, -61, 23, 36,
   -127, -65, 15, 29, 100, -23, 2, 15,
   21, 52, -120, -14, 12, -38, -39, 100,
   13, -3, 22, -125, -115, -44, -65, 85,
   -44, 35, -27, -44, 9, 77, 2, 4,
   5, 35, -31, -126, -112, -91, 32, -24,
   6, -73, -41, 41, -23, 42, -127, 41,
   -51, -8, -55, -52, -32, -6, -52, 55,
   -16, 26, 110, -63, 70, 127, 38, 80,
   17, 87, 44, -51, 34, 127, -16, 117,
   126, 22, -24, -123, -6, -76, 12, -4,
   -3, 47, -31, 28, 30, 12, -24, 84,
   110, -105, 64, 44, 84, 27, -13, 54,
   104, -20, 60, -60, -10, 45, 120, -55,
   -6, -91, 35, 10, 2, 38, -30, -125,
   -100, -23, -126, 47, -16, -17, 20, -73,
   6, 31, -28, -121, -53, 79, -100, -4,
   69, 0, -20, 125, 35, 16, -44, -20,
   -5, 44, -113, -11, -6, 57, 33, -3,
   -21, 50, 101, -9, 42, 72, -10, 21,
   95, 39, 8, 72, 42, -43, -24, 30,
   33, -27, -17, 79, 52, -127, 3, 39,
   1, -66, -43, 85, 11, -56, -20, 14,
   -7, -30, -8, -10, -34, 48, -109, -12,
   -99, -58, 123, -82, 35, -102, 7, -83,
   -104, 29, 99, -91, 13, 15, -64, -111,
   -17, -24, -98, -97, 86, 0, 12, 123,
   -113, 61, -13, 3, 31, 4, -92, -115,
   126, 7, 6, 74, -68, 46, 19, -85,
   -94, -20, -20, -117, 59, -51, -59, 20,
   18, 3, 6, 21, 1, 94, -78, 112,
   -12, -46, -30, 67, -16, -83, 6, 42,
   -118, 49, -82, -21, -4, 15, -12, -67,
   20, -71, -69, 57, -10, -51, -46, 99,
   -5, -9, -40, 59, -61, -11, -59, -69,
   2, -55, -32, -48, -4, -6, -33, -110,
   94, 43, -19, -18, 31, -126, -5, -19,
   -80, -20, -20, -28, -56, -70, 45, -46,
   43, 77, 6, 77, -90, 26, -37, 35,
   -39, -48, 28, 9, -56, -42, -31, -46,
   -31, 13, -65, 77, 34, -41, 9, 17,
   20, 24, 51, -44, 11, -21, -44, -78,
   -96, -23, -22, 6, 18, -126, -110, -33,
   8, -32, 17, -123, -43, -7, -53, 17,
   46, -53, 26, -15, 70, 19, -51, 67,
   25, 117, 56, 7, -6, 74, 57, 101,
   122, 41, -32, -44, -21, 54, 32, 22,
   119, 120, 72, 68, -24, 29, 48, -6,
   2, -14, 5, -35, -77, 4, -72, 53,
   46, -31, 57, 25, 9, 69, -21, -7,
   70, -41, 43, 63, 10, -53, -68, -31,
   20, -19, -90, 48, -22, -54, 33, 64,
   20, -79, -13, -17, 45, -41, 103, -16,
   25, 6, -35, -24, 28, 9, -29, 76,
   4, 40, 47, 23, 24, -51, 92, -17,
   49, -23, 107, -13, 65, 72, 34, -19,
   -20, -60, -45, -55, -2, 19, -58, -49,
   7, 20, 78, 120, -69, 28, 45, -119,
   -15, 13, 20, -45, 25, -108, -20, 12,
   -54, -17, 32, -17, -13, -3, -3, 17,
   -25, -48, 95, 8, 36, -66, -4, -26,
   -17, 12, 39, 57, 53, -17, -33, -46,
   -18, -61, 19, 64, -72, -12, -69, -31,
   -31, 66, 65, -62, -10, 120, 4, 46,
   122, -36, 75, -47, -5, -82, 49, -3,
   -123, -125, -37, 127, 33, 111, 58, -68,
   -36, 87, 51, 22, -49, -1, 115, -10,
   -40, 37, -56, -90, 11, 34, 77, -5,
   -37, 61, 123, -11, 17, 46, 64, -86,
   -96, -5, -18, -84, 116, -126, 127, 55,
   58, 27, -68, 42, 47, -63, -108, -103,
   -33, -1, 77, 0, -9, 33, 126, -106,
   -14, 127, 8, 2, -42, 37, 41, -23,
   17, 11, 4, -65, -42, 0, -47, -36,
   -11, 34, -83, -25, 52, -125, -25, 0,
   7, 24, -83, -56, -21, 112, -60, 25,
   -124, -114, -67, -14, -55, -28, -34, -9,
   119, 8, -47, 52, -6, 20, 23, 9,
   -104, -27, -46, -42, -32, 55, 118, 49,
   -35, -41, -19, -103, 1, 63, -47, 9,
   1, 0, 124, 72, 1, 8, 47, 118,
   29, -39, -20, 26, -38, -17, 13, 68,
   -52, -37, -30, 105, 7, -5, 27, 24,
   71, 15, -48, 80, -9, -9, 66, 19,
   19, -31, -74, 115, -4, 21, 78, -19,
   2, 17, -51, 28, -109, 58, 78, -10,
   -3, 119, -44, -12, -41, -57, 67, 38,
   49, -113, -43, -101, 59, 104, -26, 116,
   -23, -47, -33, 57, 17, -99, -123, -3,
   -55, 9, 94, -50, 30, -48, -128, -63,
   3, -61, 61, -31, -40, -31, 4, -54,
   -123, 37, 70, 14, -13, -32, -115, 61,
   21, -93, -34, -7, -32, 26, -20, -110,
   73, -15, -123, -69, 41, 13, 106, 10,
   -39, 69, -102, -80, 18, 51, -81, 86,
   30, 39, 48, -78, 106, 14, 30, -27,
   65, 62, -20, -113, -30, 47, 22, -101,
   -24, 119, -15, -40, -95, 76, -112, -5,
   38, -123, 77, -22, -84, 63, 17, 3,
   -113, 50, -6, -60, 5, 16, 29, 21,
   -1, -25, -16, -2, 58, -50, -58, -43,
   -28, -85, -71, -45, 66, 46, 127, 37,
   -63, -9, -60, 56, 22, 48, -47, 23,
   28, 21, 27, -32, 7, -71, -82, -7,
   -11, -27, -24, -2, -45, 67, 32, 21,
   86, 62, -51, 39, -41, 2, -41, -31,
